{"learner":{"attributes":{"scikit_learn":"{\"_estimator_type\": \"classifier\"}"},"feature_names":[],"feature_types":[],"gradient_booster":{"model":{"gbtree_model_param":{"num_parallel_tree":"1","num_trees":"100"},"iteration_indptr":[0,1,2,3,4,5,6,7,8,9,10,11,12,13,14,15,16,17,18,19,20,21,22,23,24,25,26,27,28,29,30,31,32,33,34,35,36,37,38,39,40,41,42,43,44,45,46,47,48,49,50,51,52,53,54,55,56,57,58,59,60,61,62,63,64,65,66,67,68,69,70,71,72,73,74,75,76,77,78,79,80,81,82,83,84,85,86,87,88,89,90,91,92,93,94,95,96,97,98,99,100],"tree_info":[0,0,0,0,0,0,0,0,0,0,0,0,0,0,0,0,0,0,0,0,0,0,0,0,0,0,0,0,0,0,0,0,0,0,0,0,0,0,0,0,0,0,0,0,0,0,0,0,0,0,0,0,0,0,0,0,0,0,0,0,0,0,0,0,0,0,0,0,0,0,0,0,0,0,0,0,0,0,0,0,0,0,0,0,0,0,0,0,0,0,0,0,0,0,0,0,0,0,0,0],"trees":[{"base_weights":[2.9023804E-2,1.7839074E0,-5.408237E-1,2.1603893E-2,1.8072636E0,1.9505861E-1,-8.893553E-1,1.8934183E-1,1.3588433E0,1.5968256E0,-1.0962216E0,7.2667503E-1,1.4844532E0,1.787777E-1,1.0732911E0,1.5204532E0,-1.2858386E0,1.01250604E-1,3.0157557E-2,1.8703751E-1,1.2872789E0,-7.0776916E-3,1.5294538E-1,1.9288097E-1,1.16836E0,1.9096701E-1,-1.4096445E0,1.8090548E-1,8.7590136E-2,1.8554437E-1,7.2851025E-2,1.1663528E-1,-1.5053968E-1],"categories":[],"categories_nodes":[],"categories_segments":[],"categories_sizes":[],"default_left":[0,0,0,0,0,0,0,0,0,0,0,0,0,0,0,0,0,0,0,0,0,0,0,0,0,0,0,0,0,0,0,0,0],"id":0,"left_children":[1,3,5,-1,7,-1,9,-1,11,13,15,17,19,-1,21,23,25,-1,-1,-1,27,-1,-1,-1,29,-1,31,-1,-1,-1,-1,-1,-1],"loss_changes":[1.554758E3,1.3565186E1,1.0208734E3,0E0,1.1929077E1,0E0,5.316501E2,0E0,4.0063477E0,6.0338593E0,4.7418945E2,1.2224717E0,1.5844955E0,0E0,1.2509563E1,7.0587463E0,3.5400488E2,0E0,0E0,0E0,6.557228E0,0E0,0E0,0E0,9.92577E0,0E0,2.1275989E2,0E0,0E0,0E0,0E0,0E0,0E0],"parents":[2147483647,0,0,1,1,2,2,4,4,6,6,8,8,9,9,10,10,11,11,12,12,14,14,15,15,16,16,20,20,24,24,26,26],"right_children":[2,4,6,-1,8,-1,10,-1,12,14,16,18,20,-1,22,24,26,-1,-1,-1,28,-1,-1,-1,30,-1,32,-1,-1,-1,-1,-1,-1],"split_conditions":[2.678995E-1,3.7526962E-1,3.093823E-1,2.1603893E-2,1.6035452E-1,1.9505861E-1,3.402224E-1,1.8934183E-1,1.8449898E-1,1.9828416E-1,1.9419004E-1,1.7069456E-1,4.909501E-1,1.787777E-1,2.682007E-1,4.4095096E-1,3.211776E-1,1.01250604E-1,3.0157557E-2,1.8703751E-1,3.7935188E-1,-7.0776916E-3,1.5294538E-1,1.9288097E-1,2.3453797E-1,1.9096701E-1,3.434594E-1,1.8090548E-1,8.7590136E-2,1.8554437E-1,7.2851025E-2,1.1663528E-1,-1.5053968E-1],"split_indices":[1789,3492,7823,0,1789,0,7500,0,1789,7500,6634,1789,4956,0,7500,7172,7853,0,0,0,5792,0,0,0,608,0,6311,0,0,0,0,0,0],"split_type":[0,0,0,0,0,0,0,0,0,0,0,0,0,0,0,0,0,0,0,0,0,0,0,0,0,0,0,0,0,0,0,0,0],"sum_hessian":[1.5527683E3,3.8009863E2,1.1726697E3,5.7295837E0,3.7436905E2,1.433517E2,1.029318E3,3.113309E2,6.3038136E1,7.855085E1,9.5076715E2,1.1573959E1,5.1464176E1,5.578814E1,2.2762712E1,6.3767723E1,8.8699945E2,6.094376E0,5.4795837E0,1.4533129E1,3.693105E1,6.7295833E0,1.6033129E1,2.7451466E1,3.6316257E1,3.254584E1,8.544536E2,1.4783129E1,2.2147919E1,1.2918337E1,2.3397919E1,3.022188E1,8.2423175E2],"tree_param":{"num_deleted":"0","num_feature":"8536","num_nodes":"33","size_leaf_vector":"1"}},{"base_weights":[1.0957025E-2,1.6171341E0,-4.553417E-1,1.7338996E0,1.2265007E0,1.7912869E-1,-7.968906E-1,1.7548698E-1,7.582162E-2,1.694384E-1,1.1165398E0,1.491198E0,-9.880369E-1,1.678807E-1,9.8056626E-1,1.6810435E-1,9.692029E-1,1.3809739E0,-1.1488208E0,1.7149685E-1,8.0112934E-1,8.6737415E-3,1.2616327E-1,1.7458615E-1,1.123683E0,1.9110705E-1,-1.2592652E0,1.6912124E-1,5.407515E-2,1.313756E-1,7.433181E-3,-1.3586403E-1,1.3314442E-1],"categories":[],"categories_nodes":[],"categories_segments":[],"categories_sizes":[],"default_left":[0,0,0,1,0,0,0,0,0,0,0,0,0,0,0,0,0,0,0,0,0,0,0,0,0,0,1,0,0,0,0,0,0],"id":1,"left_children":[1,3,5,7,9,-1,11,-1,-1,-1,13,15,17,-1,19,-1,21,23,25,-1,27,-1,-1,-1,29,-1,31,-1,-1,-1,-1,-1,-1],"loss_changes":[1.146598E3,1.3584717E1,9.118615E2,4.0456543E0,2.3621597E0,0E0,4.522193E2,0E0,0E0,0E0,3.6965332E0,6.2844696E0,3.6410687E2,0E0,6.3585625E0,0E0,5.9960384E0,3.7597275E0,3.037909E2,0E0,1.04491825E1,0E0,0E0,0E0,7.5907707E0,0E0,2.2356311E2,0E0,0E0,0E0,0E0,0E0,0E0],"parents":[2147483647,0,0,1,1,2,2,3,3,4,4,6,6,10,10,11,11,12,12,14,14,16,16,17,17,18,18,20,20,24,24,26,26],"right_children":[2,4,6,8,10,-1,12,-1,-1,-1,14,16,18,-1,20,-1,22,24,26,-1,28,-1,-1,-1,30,-1,32,-1,-1,-1,-1,-1,-1],"split_conditions":[2.678995E-1,1.4296268E-1,3.093823E-1,1.1363274E-1,2.4796236E-1,1.7912869E-1,3.402224E-1,1.7548698E-1,7.582162E-2,1.694384E-1,4.909501E-1,1.9193925E-1,1.9419004E-1,1.678807E-1,5.307674E-1,1.6810435E-1,2.509697E-1,4.4095096E-1,4.761317E-1,1.7149685E-1,3.4172034E-1,8.6737415E-3,1.2616327E-1,1.7458615E-1,1.6586664E-1,1.9110705E-1,1.08369306E-1,1.6912124E-1,5.407515E-2,1.313756E-1,7.433181E-3,-1.3586403E-1,1.3314442E-1],"split_indices":[1789,1789,7823,3463,3175,0,7500,0,0,0,4956,7500,6634,0,4926,0,7500,7172,8405,0,2029,0,0,0,6634,0,6311,0,0,0,0,0,0],"split_type":[0,0,0,0,0,0,0,0,0,0,0,0,0,0,0,0,0,0,0,0,0,0,0,0,0,0,0,0,0,0,0,0,0],"sum_hessian":[1.5289407E3,3.4345023E2,1.1854905E3,2.617661E2,8.168409E1,1.5588316E2,1.0296073E3,2.5547661E2,6.289519E0,1.2802122E1,6.8881966E1,7.88572E1,9.507501E2,1.1204291E1,5.7677673E1,5.6198006E1,2.2659193E1,5.9943623E1,8.9080646E2,9.644993E0,4.8032684E1,5.962566E0,1.6696629E1,2.2396124E1,3.75475E1,3.0464928E1,8.6034155E2,9.627282E0,3.84054E1,3.1576044E1,5.971455E0,8.2901746E2,3.13241E1],"tree_param":{"num_deleted":"0","num_feature":"8536","num_nodes":"33","size_leaf_vector":"1"}},{"base_weights":[-1.5089343E-3,1.5664972E0,-2.0738524E-1,1.6564594E-1,1.314973E0,1.7532359E-1,-3.6540952E-1,-1.5348832E-2,1.5378174E-1,1.726871E-1,-5.0618243E-1,1.6305508E-1,-6.0406834E-1,1.7329793E-1,-6.9905114E-1,1.6998835E-1,-7.7472135E-2],"categories":[],"categories_nodes":[],"categories_segments":[],"categories_sizes":[],"default_left":[0,0,0,0,0,0,0,0,0,0,0,0,0,0,0,0,0],"id":2,"left_children":[1,3,5,-1,7,-1,9,-1,-1,-1,11,-1,13,-1,15,-1,-1],"loss_changes":[4.8700662E2,1.7836609E0,4.138013E2,0E0,1.6917686E1,0E0,3.6459396E2,0E0,0E0,0E0,2.4314896E2,0E0,2.4712607E2,0E0,1.9469366E2,0E0,0E0],"parents":[2147483647,0,0,1,1,2,2,4,4,6,6,10,10,12,12,14,14],"right_children":[2,4,6,-1,8,-1,10,-1,-1,-1,12,-1,14,-1,16,-1,-1],"split_conditions":[5.1055235E-1,1.8384312E-1,3.6532283E-1,1.6564594E-1,2.2680192E-1,1.7532359E-1,4.761317E-1,-1.5348832E-2,1.5378174E-1,1.726871E-1,4.1541696E-1,1.6305508E-1,2.5726202E-1,1.7329793E-1,4.3998006E-1,1.6998835E-1,-7.7472135E-2],"split_indices":[3320,3320,2029,0,3320,0,8405,0,0,0,5022,0,351,0,6657,0,0],"split_type":[0,0,0,0,0,0,0,0,0,0,0,0,0,0,0,0,0],"sum_hessian":[1.5066166E3,1.7409047E2,1.3325261E3,1.2411337E2,4.9977104E1,9.863672E1,1.2338894E3,6.625928E0,4.3351177E1,7.7074776E1,1.1568146E3,4.998759E1,1.106827E3,4.2553535E1,1.0642734E3,3.1887741E1,1.0323857E3],"tree_param":{"num_deleted":"0","num_feature":"8536","num_nodes":"17","size_leaf_vector":"1"}},{"base_weights":[1.906916E-2,1.4720625E0,-4.0921438E-1,-4.5136614E-3,1.4986705E0,1.6118215E-1,-6.899256E-1,2.008872E-2,1.5182254E0,1.2899818E0,-8.589806E-1,5.791625E-2,1.5338543E-1,1.4622481E-1,8.0608696E-1,1.2485479E0,-1.0108218E0,1.3324547E-2,1.1820022E-1,1.83238E-2,1.3383677E0,1.1832054E0,-1.1207813E0,1.4944108E-1,9.219021E-2,1.381704E-1,8.6105525E-2,1.6467646E-1,-1.2021867E-1],"categories":[],"categories_nodes":[],"categories_segments":[],"categories_sizes":[],"default_left":[0,0,0,0,0,0,0,0,0,0,0,0,0,0,0,0,0,0,0,0,0,0,0,0,0,0,0,0,0],"id":3,"left_children":[1,3,5,-1,7,-1,9,-1,11,13,15,-1,-1,-1,17,19,21,-1,-1,-1,23,25,27,-1,-1,-1,-1,-1,-1],"loss_changes":[9.36293E2,1.3895264E1,6.6039905E2,0E0,8.238464E0,0E0,3.4287344E2,0E0,3.9769287E0,5.550461E0,3.0250104E2,0E0,0E0,0E0,5.7666264E0,5.850952E0,2.1330011E2,0E0,0E0,0E0,2.4303741E0,1.5228729E0,1.9059802E2,0E0,0E0,0E0,0E0,0E0,0E0],"parents":[2147483647,0,0,1,1,2,2,4,4,6,6,8,8,9,9,10,10,14,14,15,15,16,16,20,20,21,21,22,22],"right_children":[2,4,6,-1,8,-1,10,-1,12,14,16,-1,-1,-1,18,20,22,-1,-1,-1,24,26,28,-1,-1,-1,-1,-1,-1],"split_conditions":[2.4506488E-1,3.523105E-1,3.0848435E-1,-4.5136614E-3,2.7380618E-1,1.6118215E-1,3.402224E-1,2.008872E-2,3.382126E-1,1.9193925E-1,1.9166967E-1,5.791625E-2,1.5338543E-1,1.4622481E-1,2.682007E-1,1.7674376E-1,3.434594E-1,1.3324547E-2,1.1820022E-1,1.83238E-2,1.5880169E-1,1.7963132E-1,4.761317E-1,1.4944108E-1,9.219021E-2,1.381704E-1,8.6105525E-2,1.6467646E-1,-1.2021867E-1],"split_indices":[1789,3492,7823,0,3795,0,7500,0,5800,7500,6634,0,0,0,7500,2432,6311,0,0,0,6634,6311,8405,0,0,0,0,0,0],"split_type":[0,0,0,0,0,0,0,0,0,0,0,0,0,0,0,0,0,0,0,0,0,0,0,0,0,0,0,0,0],"sum_hessian":[1.5026172E3,3.4152466E2,1.1610925E3,5.874298E0,3.3565036E2,1.4102356E2,1.020069E3,5.149832E0,3.3050055E2,7.972538E1,9.4034357E2,6.0334654E0,3.2446707E2,5.7303528E1,2.2421854E1,6.2710476E1,8.776331E2,8.522355E0,1.3899498E1,5.1125817E0,5.7597897E1,4.1419903E1,8.362132E2,4.001615E1,1.7581745E1,2.3593393E1,1.7826511E1,2.3344334E1,8.128689E2],"tree_param":{"num_deleted":"0","num_feature":"8536","num_nodes":"29","size_leaf_vector":"1"}},{"base_weights":[4.452712E-2,1.3797697E0,-3.5651675E-1,1.4798006E0,1.0493003E0,1.49567E-1,-6.2513345E-1,8.6146355E-2,1.4972717E-1,1.5100956E-1,9.315768E-1,1.642858E-1,-7.507919E-1,1.4858554E-1,7.6832414E-1,1.0961384E0,-8.900459E-1,1.515139E-1,5.5100816E-1,1.3476346E-1,5.178103E-1,1.1926732E0,-1.0140431E0,1.467344E-1,3.6131375E-2,-1.8933512E-2,8.425807E-2,6.551727E-2,1.3411658E-1,-1.0991794E-1,9.772577E-2],"categories":[],"categories_nodes":[],"categories_segments":[],"categories_sizes":[],"default_left":[0,0,0,0,0,0,0,0,0,0,0,0,0,0,0,0,0,0,0,0,0,0,1,0,0,0,0,0,0,0,0],"id":4,"left_children":[1,3,5,7,9,-1,11,-1,-1,-1,13,-1,15,-1,17,19,21,-1,23,-1,25,27,29,-1,-1,-1,-1,-1,-1,-1,-1],"loss_changes":[7.9030835E2,9.715881E0,5.656572E2,1.5106812E0,3.076439E0,0E0,2.8394482E2,0E0,0E0,0E0,5.0511475E0,0E0,2.4289246E2,0E0,8.081238E0,8.959183E0,2.2723401E2,0E0,7.140004E0,0E0,5.1538334E0,3.083191E0,1.4120471E2,0E0,0E0,0E0,0E0,0E0,0E0,0E0,0E0],"parents":[2147483647,0,0,1,1,2,2,3,3,4,4,6,6,10,10,12,12,14,14,15,15,16,16,18,18,20,20,21,21,22,22],"right_children":[2,4,6,8,10,-1,12,-1,-1,-1,14,-1,16,-1,18,20,22,-1,24,-1,26,28,30,-1,-1,-1,-1,-1,-1,-1,-1],"split_conditions":[2.678995E-1,1.4196746E-1,3.093823E-1,9.186284E-2,3.7935188E-1,1.49567E-1,3.211776E-1,8.6146355E-2,1.4972717E-1,1.5100956E-1,2.5246948E-1,1.642858E-1,4.8473516E-1,1.4858554E-1,4.909501E-1,1.9193925E-1,1.6918284E-1,1.515139E-1,2.941672E-1,1.3476346E-1,2.7670094E-1,1.3516344E-1,1.08369306E-1,1.467344E-1,3.6131375E-2,-1.8933512E-2,8.425807E-2,6.551727E-2,1.3411658E-1,-1.0991794E-1,9.772577E-2],"split_indices":[1789,1789,7823,1789,5792,0,7853,0,0,0,3175,0,7500,0,4956,7500,6634,0,5305,0,7500,6634,6311,0,0,0,0,0,0,0,0],"split_type":[0,0,0,0,0,0,0,0,0,0,0,0,0,0,0,0,0,0,0,0,0,0,0,0,0,0,0,0,0,0,0],"sum_hessian":[1.4739392E3,3.3988376E2,1.1340555E3,2.5823865E2,8.164512E1,1.4305864E2,9.909968E2,8.478377E0,2.4976028E2,1.4207288E1,6.743783E1,5.1390114E1,9.3960675E2,1.3500181E1,5.393765E1,6.539526E1,8.742115E2,1.0811488E1,4.312616E1,4.4648746E1,2.0746521E1,4.8638386E1,8.2557306E2,6.241369E0,3.6884792E1,6.66071E0,1.4085812E1,1.1699985E1,3.69384E1,7.9215326E2,3.3419792E1],"tree_param":{"num_deleted":"0","num_feature":"8536","num_nodes":"31","size_leaf_vector":"1"}},{"base_weights":[3.9872214E-2,1.3762069E-1,-1.4208575E-1,1.5107621E-1,-2.7558568E-1,1.4222114E-1,-4.0496287E-1,1.4947362E-1,-4.9282792E-1,1.5221035E-1,-5.841398E-1,-6.508344E-2,1.5400922E-1],"categories":[],"categories_nodes":[],"categories_segments":[],"categories_sizes":[],"default_left":[0,0,0,0,0,0,0,0,0,0,1,0,0],"id":5,"left_children":[1,-1,3,-1,5,-1,7,-1,9,-1,11,-1,-1],"loss_changes":[3.466338E2,0E0,2.7731897E2,0E0,2.5581067E2,0E0,1.8108658E2,0E0,1.9103302E2,0E0,1.4117267E2,0E0,0E0],"parents":[2147483647,0,0,2,2,4,4,6,6,8,8,10,10],"right_children":[2,-1,4,-1,6,-1,8,-1,10,-1,12,-1,-1],"split_conditions":[5.1055235E-1,1.3762069E-1,3.6532283E-1,1.5107621E-1,3.093823E-1,1.4222114E-1,4.761317E-1,1.4947362E-1,4.3998006E-1,1.5221035E-1,1.7224066E-1,-6.508344E-2,1.5400922E-1],"split_indices":[3320,0,2029,0,7823,0,8405,0,6657,0,7942,0,0],"split_type":[0,0,0,0,0,0,0,0,0,0,0,0,0],"sum_hessian":[1.423753E3,1.698414E2,1.2539116E3,9.2938156E1,1.1609735E3,8.149779E1,1.0794757E3,4.701298E1,1.0324626E3,4.408101E1,9.883817E2,9.589666E2,2.9415075E1],"tree_param":{"num_deleted":"0","num_feature":"8536","num_nodes":"13","size_leaf_vector":"1"}},{"base_weights":[7.267616E-3,1.2540524E0,-3.4457636E-1,4.5215203E-3,1.2757022E0,1.357278E-1,-5.672787E-1,1.3439704E0,9.5142305E-1,1.4942306E-1,-6.71138E-1,1.3641576E-1,6.9614545E-2,1.4812483E-1,7.9303247E-1,1.7151476E-1,-7.5455284E-1,-8.32029E-3,9.945091E-1,-8.625415E-1,1.0581207E0,1.4353904E-1,7.615939E-2,1.6174467E-1,-9.426246E-2,1.3231707E-1,5.671087E-2],"categories":[],"categories_nodes":[],"categories_segments":[],"categories_sizes":[],"default_left":[0,0,0,0,0,0,0,1,0,0,0,0,0,0,0,0,1,0,0,0,0,0,0,0,0,0,0],"id":6,"left_children":[1,3,5,-1,7,-1,9,11,13,-1,15,-1,-1,-1,17,-1,19,-1,21,23,25,-1,-1,-1,-1,-1,-1],"loss_changes":[5.9998676E2,7.8204346E0,4.0506424E2,0E0,5.267334E0,0E0,2.031174E2,2.2131042E0,3.4280815E0,0E0,1.8032156E2,0E0,0E0,0E0,7.917059E0,0E0,1.7115842E2,0E0,2.6197853E0,1.646529E2,5.671997E0,0E0,0E0,0E0,0E0,0E0,0E0],"parents":[2147483647,0,0,1,1,2,2,4,4,6,6,7,7,8,8,10,10,14,14,16,16,18,18,19,19,20,20],"right_children":[2,4,6,-1,8,-1,10,12,14,-1,16,-1,-1,-1,18,-1,20,-1,22,24,26,-1,-1,-1,-1,-1,-1],"split_conditions":[2.678995E-1,2.7380618E-1,3.093823E-1,4.5215203E-3,1.6035452E-1,1.357278E-1,3.211776E-1,1.1363274E-1,5.307674E-1,1.4942306E-1,2.473998E-1,1.3641576E-1,6.9614545E-2,1.4812483E-1,1.8449898E-1,1.7151476E-1,1.2833694E-1,-8.32029E-3,4.909501E-1,4.1541696E-1,1.8412542E-1,1.4353904E-1,7.615939E-2,1.6174467E-1,-9.426246E-2,1.3231707E-1,5.671087E-2],"split_indices":[1789,3795,7823,0,1789,0,7853,3463,4926,0,2119,0,0,0,1789,0,6311,0,4956,5022,6311,0,0,0,0,0,0],"split_type":[0,0,0,0,0,0,0,0,0,0,0,0,0,0,0,0,0,0,0,0,0,0,0,0,0,0,0],"sum_hessian":[1.365744E3,3.0002374E2,1.0657202E3,5.333136E0,2.946906E2,1.2273153E2,9.429887E2,2.4084319E2,5.3847412E1,4.4587227E1,8.984014E2,2.324926E2,8.350591E0,1.0470646E1,4.3376766E1,2.9683084E1,8.687184E2,8.218966E0,3.5157803E1,8.203696E2,4.834872E1,1.0368578E1,2.4789225E1,2.5061958E1,7.953077E2,3.0298632E1,1.8050089E1],"tree_param":{"num_deleted":"0","num_feature":"8536","num_nodes":"27","size_leaf_vector":"1"}},{"base_weights":[1.3735753E-2,1.2195678E0,-3.1800887E-1,-2.7900985E-3,1.2424986E0,1.293532E-1,-5.1803416E-1,1.3225658E0,9.891431E-1,1.2301667E0,-6.5472525E-1,6.780028E-2,1.3385298E0,8.1663895E-1,1.2426432E-1,1.4162141E-1,8.3878016E-1,1.3681984E-1,-7.499555E-1,6.8720095E-2,1.3529521E-1,1.3166532E-1,6.504062E-1,2.1705111E-2,9.9549346E-2,9.427081E-1,-8.499706E-1,1.3815069E-1,4.5983516E-2,1.2291943E-1,3.903594E-2,1.3111489E-1,-9.204342E-2],"categories":[],"categories_nodes":[],"categories_segments":[],"categories_sizes":[],"default_left":[0,0,0,0,0,0,0,0,0,0,0,0,0,0,0,0,0,0,0,0,0,0,0,0,0,0,0,0,0,0,0,0,0],"id":7,"left_children":[1,3,5,-1,7,-1,9,11,13,15,17,-1,19,21,-1,-1,23,-1,25,-1,-1,-1,27,-1,-1,29,31,-1,-1,-1,-1,-1,-1],"loss_changes":[5.356215E2,8.298462E0,3.3916895E2,0E0,4.4467163E0,0E0,2.2420453E2,1.2801208E0,2.1378021E0,3.7740707E0,1.6818738E2,0E0,1.0095215E0,2.9518719E0,0E0,0E0,2.1620922E0,0E0,1.4120486E2,0E0,0E0,0E0,4.430851E0,0E0,0E0,6.9170685E0,1.2053558E2,0E0,0E0,0E0,0E0,0E0,0E0],"parents":[2147483647,0,0,1,1,2,2,4,4,6,6,7,7,8,8,9,9,10,10,12,12,13,13,16,16,18,18,22,22,25,25,26,26],"right_children":[2,4,6,-1,8,-1,10,12,14,16,18,-1,20,22,-1,-1,24,-1,26,-1,-1,-1,28,-1,-1,30,32,-1,-1,-1,-1,-1,-1],"split_conditions":[2.440066E-1,3.7526962E-1,3.093823E-1,-2.7900985E-3,1.4158678E-1,1.293532E-1,5.1055235E-1,9.277559E-2,1.9992056E-1,1.8384312E-1,4.761317E-1,6.780028E-2,3.8414583E-1,2.5246948E-1,1.2426432E-1,1.4162141E-1,2.2805902E-1,1.3681984E-1,3.9815325E-1,6.8720095E-2,1.3529521E-1,1.3166532E-1,5.307674E-1,2.1705111E-2,9.9549346E-2,1.9193925E-1,1.9243895E-1,1.3815069E-1,4.5983516E-2,1.2291943E-1,3.903594E-2,1.3111489E-1,-9.204342E-2],"split_indices":[1789,3492,7823,0,1789,0,3320,1789,1789,3320,8405,0,1804,3175,0,0,3320,0,7500,0,0,0,4926,0,0,7500,5099,0,0,0,0,0,0],"split_type":[0,0,0,0,0,0,0,0,0,0,0,0,0,0,0,0,0,0,0,0,0,0,0,0,0,0,0,0,0,0,0,0,0],"sum_hessian":[1.3369896E3,2.8788892E2,1.0491007E3,5.192513E0,2.826964E2,1.1523356E2,9.338671E2,2.1160374E2,7.109267E1,6.714329E1,8.667239E2,6.1647897E0,2.0543896E2,4.4816788E1,2.627588E1,4.3735126E1,2.3408161E1,3.836611E1,8.283577E2,5.504371E0,1.9993459E2,9.455349E0,3.536144E1,5.1925926E0,1.8215569E1,4.574472E1,7.8261304E2,6.019421E0,2.9342018E1,2.9314695E1,1.6430025E1,2.4155512E1,7.584575E2],"tree_param":{"num_deleted":"0","num_feature":"8536","num_nodes":"33","size_leaf_vector":"1"}},{"base_weights":[2.0825328E-2,1.1449288E0,-3.068329E-1,-1.9678215E-2,1.17254E0,1.2623227E-1,-5.107713E-1,1.2574893E0,8.8770896E-1,1.0973432E0,-6.252464E-1,5.7272047E-2,1.2846236E-1,1.4580122E-1,7.7660054E-1,4.896405E-2,1.1685135E-1,1.0601467E0,-7.52859E-1,1.3479708E-1,6.1791563E-1,1.1972793E-1,3.1397805E-2,1.011478E0,-8.537616E-1,1.2547223E-1,4.1987352E-2,1.1984461E-1,7.489313E-2,1.7844047E-1,-9.262324E-2],"categories":[],"categories_nodes":[],"categories_segments":[],"categories_sizes":[],"default_left":[0,0,0,0,0,0,0,0,0,0,0,0,0,0,0,0,0,0,0,0,0,0,0,0,0,0,0,0,0,0,0],"id":8,"left_children":[1,3,5,-1,7,-1,9,11,13,15,17,-1,-1,-1,19,-1,-1,21,23,-1,25,-1,-1,27,29,-1,-1,-1,-1,-1,-1],"loss_changes":[4.74026E2,1.0991333E1,3.195579E2,0E0,5.773651E0,0E0,1.631738E2,3.295105E0,3.2282982E0,1.9804916E0,1.78159E2,0E0,0E0,0E0,4.5831375E0,0E0,0E0,5.605858E0,1.3744135E2,0E0,5.6020412E0,0E0,0E0,1.1621323E0,1.4049866E2,0E0,0E0,0E0,0E0,0E0,0E0],"parents":[2147483647,0,0,1,1,2,2,4,4,6,6,7,7,8,8,9,9,10,10,14,14,17,17,18,18,20,20,23,23,24,24],"right_children":[2,4,6,-1,8,-1,10,12,14,16,18,-1,-1,-1,20,-1,-1,22,24,-1,26,-1,-1,28,30,-1,-1,-1,-1,-1,-1],"split_conditions":[2.6279876E-1,2.952344E-1,3.093823E-1,-1.9678215E-2,1.444837E-1,1.2623227E-1,1.9419004E-1,9.277559E-2,3.8849676E-1,2.3759548E-1,3.0046448E-1,5.7272047E-2,1.2846236E-1,1.4580122E-1,4.909501E-1,4.896405E-2,1.1685135E-1,2.0788008E-1,3.434594E-1,1.3479708E-1,2.4796236E-1,1.1972793E-1,3.1397805E-2,1.8120806E-1,2.1446024E-1,1.2547223E-1,4.1987352E-2,1.1984461E-1,7.489313E-2,1.7844047E-1,-9.262324E-2],"split_indices":[1789,3795,7823,0,1789,0,6634,1789,5254,7938,7500,0,0,0,4956,0,0,7500,6311,0,3175,0,0,6311,2119,0,0,0,0,0,0],"split_type":[0,0,0,0,0,0,0,0,0,0,0,0,0,0,0,0,0,0,0,0,0,0,0,0,0,0,0,0,0,0,0],"sum_hessian":[1.2850349E3,2.8946555E2,9.9556934E2,5.7132764E0,2.837523E2,1.1391183E2,8.8165753E2,2.1593573E2,6.781655E1,5.802022E1,8.236373E2,9.073013E0,2.0686272E2,9.081274E0,5.8735275E1,6.9086976E0,5.1111523E1,5.745925E1,7.6617804E2,1.1137676E1,4.75976E1,4.8027992E1,9.431261E0,4.095922E1,7.252188E2,1.0025346E1,3.757225E1,2.1840908E1,1.9118315E1,1.8757687E1,7.064611E2],"tree_param":{"num_deleted":"0","num_feature":"8536","num_nodes":"31","size_leaf_vector":"1"}},{"base_weights":[3.1213403E-2,1.0925932E0,-2.713318E-1,1.1980243E0,8.3375037E-1,1.2252176E-1,-4.601344E-1,3.2503698E-2,1.224787E0,1.376441E-1,7.053713E-1,1.45259E-1,-5.6126887E-1,4.6281543E-2,1.2466431E-1,1.2417948E-1,5.83041E-1,-6.7404824E-1,8.831121E-1,1.2858163E-1,4.2006233E-1,9.6269625E-1,-7.7465236E-1,1.0249963E0,3.9782985E-3,1.2711252E-1,2.498944E-2,1.0862839E-1,3.9339554E-2,-8.429184E-2,1.4284126E-1,1.1696418E-1,7.500523E-2],"categories":[],"categories_nodes":[],"categories_segments":[],"categories_sizes":[],"default_left":[0,0,0,0,0,0,0,0,0,0,0,0,1,0,0,0,0,0,0,0,0,0,1,0,0,0,0,0,0,0,0,0,0],"id":9,"left_children":[1,3,5,7,9,-1,11,-1,13,-1,15,-1,17,-1,-1,-1,19,21,23,-1,25,27,29,31,-1,-1,-1,-1,-1,-1,-1,-1,-1],"loss_changes":[3.955783E2,6.4582214E0,2.7145078E2,4.084778E0,4.768196E0,0E0,1.6563603E2,0E0,2.5174255E0,0E0,3.782013E0,0E0,1.3253696E2,0E0,0E0,0E0,6.080269E0,1.24552246E2,7.030384E0,0E0,6.6925755E0,2.6673584E0,1.07817566E2,1.1328583E0,0E0,0E0,0E0,0E0,0E0,0E0,0E0,0E0,0E0],"parents":[2147483647,0,0,1,1,2,2,3,3,4,4,6,6,8,8,10,10,12,12,16,16,17,17,18,18,20,20,21,21,22,22,23,23],"right_children":[2,4,6,8,10,-1,12,-1,14,-1,16,-1,18,-1,-1,-1,20,22,24,-1,26,28,30,32,-1,-1,-1,-1,-1,-1,-1,-1,-1],"split_conditions":[2.678995E-1,1.4196746E-1,3.093823E-1,9.277559E-2,5.307674E-1,1.2252176E-1,3.211776E-1,3.2503698E-2,1.9414897E-1,1.376441E-1,2.5246948E-1,1.45259E-1,1.2860155E-1,4.6281543E-2,1.2466431E-1,1.2417948E-1,2.4172921E-1,1.8260898E-1,2.9906029E-1,1.2858163E-1,2.7358952E-1,1.618763E-1,1.5711029E-1,1.8249185E-1,3.9782985E-3,1.2711252E-1,2.498944E-2,1.0862839E-1,3.9339554E-2,-8.429184E-2,1.4284126E-1,1.1696418E-1,7.500523E-2],"split_indices":[1789,1789,7823,1789,4926,0,7853,0,1336,0,3175,0,7500,0,0,0,6155,6634,7500,0,2373,6634,2119,7500,0,0,0,0,0,0,0,0,0],"split_type":[0,0,0,0,0,0,0,0,0,0,0,0,0,0,0,0,0,0,0,0,0,0,0,0,0,0,0,0,0,0,0,0,0],"sum_hessian":[1.2299653E3,2.722511E2,9.577143E2,1.9087575E2,8.1375336E1,1.0667358E2,8.510407E2,6.068517E0,1.8480724E2,1.3707709E1,6.7667625E1,4.2067543E1,8.0897314E2,5.771464E0,1.7903577E2,1.0866485E1,5.680114E1,7.508769E2,5.809625E1,9.395899E0,4.740524E1,4.2984592E1,7.0789233E2,4.95452E1,8.551047E0,6.8210773E0,4.0584164E1,3.4571476E1,8.413115E0,6.872151E2,2.0677237E1,3.0333118E1,1.9212084E1],"tree_param":{"num_deleted":"0","num_feature":"8536","num_nodes":"33","size_leaf_vector":"1"}},{"base_weights":[2.1116586E-2,1.1401011E-1,-1.1631167E-1,1.4180511E0,-2.2360495E-1,1.3259819E-1,2.0884924E-1,1.2169017E-1,-3.2343715E-1,1.7318668E0,-3.8777313E-1,1.4365423E-1,2.5224766E-1,1.2689248E-1,-4.6435678E-1,1.418766E-1,-5.4076232E-2],"categories":[],"categories_nodes":[],"categories_segments":[],"categories_sizes":[],"default_left":[0,0,0,1,0,0,0,0,0,0,0,0,0,0,0,0,0],"id":10,"left_children":[1,-1,3,5,7,-1,-1,-1,9,11,13,-1,-1,-1,15,-1,-1],"loss_changes":[1.7865738E2,0E0,1.7067862E2,1.4139404E0,1.3961005E2,0E0,0E0,0E0,1.2048691E2,2.8405685E0,1.12167435E2,0E0,0E0,0E0,1.2181476E2,0E0,0E0],"parents":[2147483647,0,0,2,2,3,3,4,4,8,8,9,9,10,10,14,14],"right_children":[2,-1,4,6,8,-1,-1,-1,10,12,14,-1,-1,-1,16,-1,-1],"split_conditions":[5.1055235E-1,1.1401011E-1,3.6532283E-1,2.136397E-1,2.1474296E-1,1.3259819E-1,2.0884924E-1,1.2169017E-1,3.838877E-1,2.1685788E-1,4.761317E-1,1.4365423E-1,2.5224766E-1,1.2689248E-1,4.3998006E-1,1.418766E-1,-5.4076232E-2],"split_indices":[3320,0,2029,3842,7823,0,0,0,4956,4956,8405,0,0,0,6657,0,0],"split_type":[0,0,0,0,0,0,0,0,0,0,0,0,0,0,0,0,0],"sum_hessian":[1.1599094E3,1.2607454E2,1.033835E3,6.676964E1,9.670653E2,6.1325764E1,5.4438705E0,6.1952084E1,9.051132E2,2.6685577E1,8.784276E2,2.1479227E1,5.2063503E0,3.81247E1,8.403029E2,3.2079895E1,8.08223E2],"tree_param":{"num_deleted":"0","num_feature":"8536","num_nodes":"17","size_leaf_vector":"1"}},{"base_weights":[1.9118475E-2,1.0097669E0,-2.4363692E-1,1.1602082E0,6.0619247E-1,1.1573978E-1,-4.0709195E-1,1.1779739E-1,4.9347524E-2,1.3387987E-1,3.9730644E-1,8.785184E-1,-5.178603E-1,1.1807998E-1,1.9640741E-1,1.1190555E-1,5.4100823E-1,1.0179727E0,-6.238078E-1,1.1911549E-1,-7.57696E-2,1.216941E-1,2.2353877E-1,1.1366545E0,4.794845E-2,2.9498369E-1,-6.715259E-1,1.2270152E-1,-3.546135E-2,4.428732E-2,-2.6084049E-2,6.630167E-2,1.2715475E-1,2.3985663E-1,-7.167741E-2],"categories":[],"categories_nodes":[],"categories_segments":[],"categories_sizes":[],"default_left":[0,0,0,1,0,0,0,0,0,0,0,0,0,0,0,0,0,0,0,0,0,0,0,0,0,0,0,0,0,0,0,0,0,0,0],"id":11,"left_children":[1,3,5,7,9,-1,11,-1,-1,-1,13,15,17,-1,19,-1,21,23,25,-1,27,-1,29,31,-1,-1,33,-1,-1,-1,-1,-1,-1,-1,-1],"loss_changes":[2.9340985E2,1.364328E1,2.0450761E2,1.4446106E0,9.607897E0,0E0,1.14182175E2,0E0,0E0,0E0,8.10744E0,4.5677376E0,1.2037836E2,0E0,1.1831986E1,0E0,5.833374E0,2.514225E0,1.1947916E2,0E0,1.3146499E1,0E0,2.30241E0,1.6163635E0,0E0,0E0,9.628824E1,0E0,0E0,0E0,0E0,0E0,0E0,0E0,0E0],"parents":[2147483647,0,0,1,1,2,2,3,3,4,4,6,6,10,10,11,11,12,12,14,14,16,16,17,17,18,18,20,20,22,22,23,23,26,26],"right_children":[2,4,6,8,10,-1,12,-1,-1,-1,14,16,18,-1,20,-1,22,24,26,-1,28,-1,30,32,-1,-1,34,-1,-1,-1,-1,-1,-1,-1,-1],"split_conditions":[2.678995E-1,1.4196746E-1,3.093823E-1,1.4277683E-1,5.307674E-1,1.1573978E-1,4.8473516E-1,1.1779739E-1,4.9347524E-2,1.3387987E-1,2.5246948E-1,1.8249185E-1,1.8260898E-1,1.1807998E-1,4.909501E-1,1.1190555E-1,2.2805902E-1,1.618763E-1,3.2401454E-1,1.1911549E-1,2.941672E-1,1.216941E-1,3.0046448E-1,1.3516344E-1,4.794845E-2,2.9498369E-1,8.987735E-1,1.2270152E-1,-3.546135E-2,4.428732E-2,-2.6084049E-2,6.630167E-2,1.2715475E-1,2.3985663E-1,-7.167741E-2],"split_indices":[1789,1789,7823,1336,4926,0,7500,0,0,0,3175,7500,6634,0,4956,0,3320,6634,1941,0,5305,0,7500,6634,0,0,6394,0,0,0,0,0,0,0,0],"split_type":[0,0,0,0,0,0,0,0,0,0,0,0,0,0,0,0,0,0,0,0,0,0,0,0,0,0,0,0,0,0,0,0,0,0,0],"sum_hessian":[1.1252614E3,2.3529645E2,8.899649E2,1.7003668E2,6.5259766E1,9.234659E1,7.976183E2,1.6487662E2,5.160053E0,1.3278857E1,5.1980907E1,6.272162E1,7.3489667E2,9.6130495E0,4.236786E1,3.526985E1,2.7451769E1,4.6868874E1,6.880278E2,8.376647E0,3.399121E1,7.867534E0,1.9584234E1,3.749436E1,9.374513E0,8.264644E0,6.797631E2,5.39322E0,2.859799E1,1.3539176E1,6.045059E0,9.622579E0,2.7871782E1,9.117704E0,6.7064545E2],"tree_param":{"num_deleted":"0","num_feature":"8536","num_nodes":"35","size_leaf_vector":"1"}},{"base_weights":[2.6745943E-2,1.0911986E0,-9.251449E-2,1.032742E0,1.7215684E-1,1.3809066E-1,-1.888943E-1,1.1794523E-1,8.1507456E-1,1.0743165E0,-2.6907358E-1,4.381869E-1,9.9120274E-2,1.1555107E-1,3.8744226E-2,1.5065178E-1,-3.267911E-1,6.4784735E-2,3.061786E-3,-3.9073882E-1,1.4209548E-1,1.7143731E-1,-4.485902E-2],"categories":[],"categories_nodes":[],"categories_segments":[],"categories_sizes":[],"default_left":[0,1,0,0,0,0,0,0,0,0,0,0,0,0,0,0,1,0,0,0,0,0,0],"id":12,"left_children":[1,3,5,7,-1,-1,9,-1,11,13,15,17,-1,-1,-1,-1,19,-1,-1,21,-1,-1,-1],"loss_changes":[1.3916197E2,2.291809E0,1.4027815E2,2.346077E0,0E0,0E0,9.411043E1,0E0,2.5486488E0,2.646843E0,8.984068E1,1.3563006E0,0E0,0E0,0E0,0E0,9.501981E1,0E0,0E0,1.0016431E2,0E0,0E0,0E0],"parents":[2147483647,0,0,1,1,2,2,3,3,6,6,8,8,9,9,10,10,11,11,16,16,19,19],"right_children":[2,4,6,8,-1,-1,10,-1,12,14,16,18,-1,-1,-1,-1,20,-1,-1,22,-1,-1,-1],"split_conditions":[5.1055235E-1,1.8768479E-1,3.6532283E-1,1.5666154E-1,1.7215684E-1,1.3809066E-1,3.093823E-1,1.1794523E-1,2.2680192E-1,1.920142E-1,4.3998006E-1,1.830837E-1,9.9120274E-2,1.1555107E-1,3.8744226E-2,1.5065178E-1,1.6533679E-1,6.4784735E-2,3.061786E-3,3.27524E-1,1.4209548E-1,1.7143731E-1,-4.485902E-2],"split_indices":[3320,6657,2029,3320,0,0,7823,0,3320,7823,6657,3320,0,0,0,0,7942,0,0,6910,0,0,0],"split_type":[0,0,0,0,0,0,0,0,0,0,0,0,0,0,0,0,0,0,0,0,0,0,0],"sum_hessian":[1.094425E3,1.09443474E2,9.849815E2,1.0257008E2,6.8733916E0,5.965585E1,9.253257E2,5.8632507E1,4.3937576E1,5.4487385E1,8.708383E2,1.5104377E1,2.8833199E1,4.8117256E1,6.3701296E0,2.662608E1,8.442122E2,9.584438E0,5.519939E0,8.151629E2,2.9049305E1,2.1036777E1,7.9412616E2],"tree_param":{"num_deleted":"0","num_feature":"8536","num_nodes":"23","size_leaf_vector":"1"}},{"base_weights":[7.289468E-3,1.3552895E0,-6.418356E-2,1.7927098E-1,9.831322E-2,1.2314081E-1,-1.2815526E-1,1.2940846E-1,-1.8547477E-1,1.4906375E0,-2.374225E-1,1.2075634E-1,1.9536744E-1,1.8471494E-1,-2.8159222E-1,1.5457718E-1,-3.3290535E-2],"categories":[],"categories_nodes":[],"categories_segments":[],"categories_sizes":[],"default_left":[0,0,0,0,0,0,0,0,0,0,0,0,0,0,0,0,0],"id":13,"left_children":[1,3,5,-1,-1,-1,7,-1,9,11,13,-1,-1,-1,15,-1,-1],"loss_changes":[1.0199083E2,6.9144897E0,8.348561E1,0E0,0E0,0E0,7.841866E1,0E0,8.069447E1,1.294529E0,8.300412E1,0E0,0E0,0E0,8.2853424E1,0E0,0E0],"parents":[2147483647,0,0,1,1,2,2,6,6,8,8,9,9,10,10,14,14],"right_children":[2,4,6,-1,-1,-1,8,-1,10,12,14,-1,-1,-1,16,-1,-1],"split_conditions":[3.8849676E-1,1.679558E-1,9.4418055E-1,1.7927098E-1,9.831322E-2,1.2314081E-1,2.473998E-1,1.2940846E-1,8.7997013E-1,3.10024E-1,3.2220304E-1,1.2075634E-1,1.9536744E-1,1.8471494E-1,3.27524E-1,1.5457718E-1,-3.3290535E-2],"split_indices":[5254,5254,1864,0,0,0,2119,0,6657,6657,1941,0,0,0,6910,0,0],"split_type":[0,0,0,0,0,0,0,0,0,0,0,0,0,0,0,0,0],"sum_hessian":[1.0566902E3,5.2301823E1,1.0043883E3,2.2288109E1,3.0013716E1,4.640092E1,9.579874E2,3.6277416E1,9.2170996E2,2.6875252E1,8.948347E2,1.8917873E1,7.9573793E0,1.7720158E1,8.7711456E2,2.3161524E1,8.5395306E2],"tree_param":{"num_deleted":"0","num_feature":"8536","num_nodes":"17","size_leaf_vector":"1"}},{"base_weights":[2.049772E-2,9.9010235E-1,-2.4765281E-1,1.09001E0,6.40171E-1,1.0986256E-1,-3.785195E-1,3.3586293E-2,1.1116402E0,3.4090966E-1,8.8084984E-1,1.4195703E-1,-4.6338356E-1,5.1632352E-2,1.13093294E-1,7.33513E-1,-2.6295988E-2,1.0811248E-1,4.6102982E-2,-5.2376646E-1,1.5907761E0,1.8089136E-2,9.774455E-2,1.3256096E0,-5.94191E-1,6.1416905E-2,1.9094058E0,6.302654E-2,1.4691459E-1,1.5852246E-1,-6.5805115E-2,1.2354435E-1,2.5594977E-1],"categories":[],"categories_nodes":[],"categories_segments":[],"categories_sizes":[],"default_left":[0,0,0,0,0,0,0,0,0,0,0,0,1,0,0,0,0,0,0,0,0,0,0,0,0,0,0,0,0,0,0,0,0],"id":14,"left_children":[1,3,5,7,9,-1,11,-1,13,15,17,-1,19,-1,-1,21,-1,-1,-1,23,25,-1,-1,27,29,-1,31,-1,-1,-1,-1,-1,-1],"loss_changes":[2.747403E2,7.305481E0,1.4626535E2,2.5082703E0,3.536211E0,0E0,1.1590117E2,0E0,1.3834534E0,6.2087183E0,1.9307079E0,0E0,9.0380875E1,0E0,0E0,1.9316416E0,0E0,0E0,0E0,9.2228195E1,5.3195763E0,0E0,0E0,1.6754417E0,9.52693E1,0E0,3.5225449E0,0E0,0E0,0E0,0E0,0E0,0E0],"parents":[2147483647,0,0,1,1,2,2,3,3,4,4,6,6,8,8,9,9,10,10,12,12,15,15,19,19,20,20,23,23,24,24,26,26],"right_children":[2,4,6,8,10,-1,12,-1,14,16,18,-1,20,-1,-1,22,-1,-1,-1,24,26,-1,-1,28,30,-1,32,-1,-1,-1,-1,-1,-1],"split_conditions":[2.904662E-1,1.491937E-1,3.093823E-1,9.186284E-2,2.087409E-1,1.0986256E-1,3.211776E-1,3.3586293E-2,1.6489543E-1,1.7218754E-1,2.4506488E-1,1.4195703E-1,1.5327294E-1,5.1632352E-2,1.13093294E-1,1.5753667E-1,-2.6295988E-2,1.0811248E-1,4.6102982E-2,2.473998E-1,1.7420354E-1,1.8089136E-2,9.774455E-2,1.6943514E-1,3.7222984E-1,6.1416905E-2,2.1646255E-1,6.302654E-2,1.4691459E-1,1.5852246E-1,-6.5805115E-2,1.2354435E-1,2.5594977E-1],"split_indices":[1789,1789,7823,1789,1789,0,7853,0,3463,1789,1789,0,6910,0,0,1789,0,0,0,2119,6634,0,0,2119,8276,0,6910,0,0,0,0,0,0],"split_type":[0,0,0,0,0,0,0,0,0,0,0,0,0,0,0,0,0,0,0,0,0,0,0,0,0,0,0,0,0,0,0,0,0],"sum_hessian":[1.0547504E3,2.2792061E2,8.268297E2,1.7565501E2,5.226559E1,7.259728E1,7.542325E2,5.3584023E0,1.7029662E2,2.4374573E1,2.7891018E1,3.3284157E1,7.209483E2,6.2171173E0,1.640795E2,1.464106E1,9.733514E0,1.781647E1,1.0074549E1,7.0108466E2,1.9863665E1,5.0169272E0,9.624132E0,2.506426E1,6.760204E2,5.606662E0,1.4257003E1,5.211027E0,1.9853233E1,1.8566309E1,6.5745404E2,8.424048E0,5.8329554E0],"tree_param":{"num_deleted":"0","num_feature":"8536","num_nodes":"33","size_leaf_vector":"1"}},{"base_weights":[4.14507E-2,9.72673E-1,-2.0394602E-1,1.3806674E-2,9.990975E-1,1.08955495E-1,-3.2320672E-1,1.0993831E0,7.5210315E-1,-4.2204127E-1,1.0506852E0,4.7095142E-2,1.1194934E-1,5.7931817E-1,9.4897E-2,9.1557777E-1,-5.1112956E-1,1.2541375E-1,7.4875903E-1,7.7315885E-1,-4.1137915E-2,1.0678009E-1,5.6767505E-1,9.342434E-1,-6.0784984E-1,2.4543716E-2,1.11811094E-1,1.1521306E-1,5.6778874E-2,-5.2395284E-2,1.15352474E-1,3.1162342E-2,1.0320576E-1,2.344313E-1,-6.5194435E-2],"categories":[],"categories_nodes":[],"categories_segments":[],"categories_sizes":[],"default_left":[0,0,0,0,0,0,1,0,0,0,0,0,0,0,0,0,0,0,0,0,0,0,0,0,0,0,0,0,0,0,0,0,0,0,0],"id":15,"left_children":[1,3,5,-1,7,-1,9,11,13,15,17,-1,-1,19,-1,21,23,-1,25,27,-1,-1,29,31,33,-1,-1,-1,-1,-1,-1,-1,-1,-1,-1],"loss_changes":[2.325877E2,4.5433807E0,1.2463794E2,0E0,4.265671E0,0E0,1.00713295E2,1.2933502E0,1.5774231E0,8.264343E1,2.1226578E0,0E0,0E0,7.206809E0,0E0,1.6932182E0,9.1040085E1,0E0,3.9171038E0,1.7078819E0,0E0,0E0,1.0421356E1,2.1743965E0,8.056796E1,0E0,0E0,0E0,0E0,0E0,0E0,0E0,0E0,0E0,0E0],"parents":[2147483647,0,0,1,1,2,2,4,4,6,6,7,7,8,8,9,9,10,10,13,13,15,15,16,16,18,18,19,19,22,22,23,23,24,24],"right_children":[2,4,6,-1,8,-1,10,12,14,16,18,-1,-1,20,-1,22,24,-1,26,28,-1,-1,30,32,34,-1,-1,-1,-1,-1,-1,-1,-1,-1,-1],"split_conditions":[2.440066E-1,2.1335773E-1,3.093823E-1,1.3806674E-2,1.4196746E-1,1.08955495E-1,1.2833694E-1,9.136404E-2,1.9092809E-1,3.0046448E-1,1.8752287E-1,4.7095142E-2,1.1194934E-1,1.7069456E-1,9.4897E-2,1.9193925E-1,1.9419004E-1,1.2541375E-1,2.496643E-1,2.5246948E-1,-4.1137915E-2,1.0678009E-1,2.682007E-1,2.471208E-1,2.7795386E-1,2.4543716E-2,1.11811094E-1,1.1521306E-1,5.6778874E-2,-5.2395284E-2,1.15352474E-1,3.1162342E-2,1.0320576E-1,2.344313E-1,-6.5194435E-2],"split_indices":[1789,1336,7823,0,1789,0,6311,1789,1789,7500,6311,0,0,1789,0,7500,6634,0,6311,3175,0,0,7500,7938,4956,0,0,0,0,0,0,0,0,0,0],"split_type":[0,0,0,0,0,0,0,0,0,0,0,0,0,0,0,0,0,0,0,0,0,0,0,0,0,0,0,0,0,0,0,0,0,0,0],"sum_hessian":[1.01593695E3,2.1126662E2,8.0467035E2,6.674687E0,2.0459193E2,6.724082E1,7.3742957E2,1.4305653E2,6.1535393E1,6.8858704E2,4.8842518E1,5.1931276E0,1.378634E2,3.4871902E1,2.666349E1,4.2418324E1,6.461687E2,2.7295633E1,2.1546883E1,2.934903E1,5.5228744E0,2.8068043E1,1.4350283E1,3.998469E1,6.06184E2,9.824027E0,1.17228565E1,8.694658E0,2.0654371E1,5.0486546E0,9.301628E0,5.9970946E0,3.39876E1,8.153218E0,5.9803076E2],"tree_param":{"num_deleted":"0","num_feature":"8536","num_nodes":"35","size_leaf_vector":"1"}},{"base_weights":[4.200982E-4,9.052209E-1,-2.207932E-1,1.0326598E0,6.223757E-1,1.0567571E-1,-3.3733246E-1,2.0911973E-2,1.07002E0,1.2222648E-1,4.7801456E-1,2.1065591E-1,-3.8836864E-1,4.168597E-2,1.103246E-1,1.1186018E-1,3.3000624E-1,1.323158E-1,-4.62212E-1,1.8782087E-1,1.0966736E-1,1.9964473E-1,-5.068971E-1,1.0195189E-1,-2.7248727E-3,-6.0178544E-2,7.0608184E-2],"categories":[],"categories_nodes":[],"categories_segments":[],"categories_sizes":[],"default_left":[0,0,0,0,0,0,0,0,0,0,0,0,0,0,0,0,1,0,0,0,0,0,1,0,0,0,0],"id":16,"left_children":[1,3,5,7,9,-1,11,-1,13,-1,15,-1,17,-1,-1,-1,19,-1,21,23,-1,-1,25,-1,-1,-1,-1],"loss_changes":[1.9093578E2,6.1125336E0,1.1448214E2,3.7046661E0,4.6748486E0,0E0,8.852808E1,0E0,2.185501E0,0E0,4.427515E0,0E0,8.77761E1,0E0,0E0,0E0,4.4284687E0,0E0,7.373099E1,6.6585803E0,0E0,0E0,7.533894E1,0E0,0E0,0E0,0E0],"parents":[2147483647,0,0,1,1,2,2,3,3,4,4,6,6,8,8,10,10,12,12,16,16,18,18,19,19,22,22],"right_children":[2,4,6,8,10,-1,12,-1,14,-1,16,-1,18,-1,-1,-1,20,-1,22,24,-1,-1,26,-1,-1,-1,-1],"split_conditions":[2.678995E-1,1.422117E-1,3.093823E-1,1.550336E-1,5.307674E-1,1.0567571E-1,1.679558E-1,2.0911973E-2,9.5724516E-2,1.2222648E-1,4.909501E-1,2.1065591E-1,1.974838E-1,4.168597E-2,1.103246E-1,1.1186018E-1,1.8613645E-1,1.323158E-1,2.908255E-1,3.10024E-1,1.0966736E-1,1.9964473E-1,1.13088295E-1,1.0195189E-1,-2.7248727E-3,-6.0178544E-2,7.0608184E-2],"split_indices":[1789,1789,7823,3463,4926,0,5254,0,1789,0,4956,0,5099,0,0,0,3320,0,8287,6657,0,0,7500,0,0,0,0],"split_type":[0,0,0,0,0,0,0,0,0,0,0,0,0,0,0,0,0,0,0,0,0,0,0,0,0,0,0],"sum_hessian":[9.5194586E2,1.8640892E2,7.655369E2,1.2668066E2,5.9728268E1,6.3320816E1,7.022161E2,5.783812E0,1.2089684E2,1.01371E1,4.9591167E1,1.3540635E1,6.886755E2,6.508025E0,1.1438882E2,8.076777E0,4.151439E1,2.7784035E1,6.608914E2,3.6069885E1,5.4445024E0,1.1017356E1,6.498741E2,6.6424365E0,2.942745E1,6.031917E2,4.668233E1],"tree_param":{"num_deleted":"0","num_feature":"8536","num_nodes":"27","size_leaf_vector":"1"}},{"base_weights":[4.1196413E-2,8.4909236E-1,-1.5338014E-1,9.982214E-1,5.418045E-1,1.0104524E0,-2.6421967E-1,4.1465196E-3,1.0444447E-1,1.2207593E-1,4.362822E-1,1.1192192E-1,6.5089715E-1,1.3708474E-1,-3.4238496E-1,1.0918611E-1,3.0975533E-1,8.956613E-3,8.82373E-2,1.9964652E-1,-3.9248806E-1,-1.3235597E-1,6.0300505E-1,1.3894784E-1,-4.626534E-1,-3.675274E-2,1.2913746E-2,9.385858E-2,5.9377373E-4,-5.2110832E-2,1.6051017E-1],"categories":[],"categories_nodes":[],"categories_segments":[],"categories_sizes":[],"default_left":[0,0,0,0,0,0,0,0,0,0,0,0,0,0,0,0,0,0,0,0,0,0,0,0,1,0,0,0,0,0,0],"id":17,"left_children":[1,3,5,7,9,11,13,-1,-1,-1,15,-1,17,-1,19,-1,21,-1,-1,-1,23,25,27,-1,29,-1,-1,-1,-1,-1,-1],"loss_changes":[1.4498933E2,7.662613E0,9.617679E1,5.2342834E0,3.814684E0,1.8079529E0,8.733066E1,0E0,0E0,0E0,4.1469994E0,0E0,2.1887183E0,0E0,7.6886E1,0E0,6.1371045E0,0E0,0E0,0E0,8.0243866E1,1.243644E0,5.658576E0,0E0,7.496336E1,0E0,0E0,0E0,0E0,0E0,0E0],"parents":[2147483647,0,0,1,1,2,2,3,3,4,4,5,5,6,6,10,10,12,12,14,14,16,16,20,20,21,21,22,22,24,24],"right_children":[2,4,6,8,10,12,14,-1,-1,-1,16,-1,18,-1,20,-1,22,-1,-1,-1,24,26,28,-1,30,-1,-1,-1,-1,-1,-1],"split_conditions":[2.678995E-1,1.422117E-1,3.7488994E-1,9.5724516E-2,3.8849676E-1,1.8384312E-1,6.423652E-1,4.1465196E-3,1.0444447E-1,1.2207593E-1,2.5246948E-1,1.1192192E-1,2.3559427E-1,1.3708474E-1,3.2401454E-1,1.0918611E-1,1.8449898E-1,8.956613E-3,8.82373E-2,1.9964652E-1,2.473998E-1,1.6314854E-1,2.1653761E-1,1.3894784E-1,1.5327294E-1,-3.675274E-2,1.2913746E-2,9.385858E-2,5.9377373E-4,-5.2110832E-2,1.6051017E-1],"split_indices":[1789,1789,3320,1789,5254,3320,7853,0,0,0,3175,0,3320,0,1941,0,1789,0,0,0,2119,1789,1789,0,6910,0,0,0,0,0,0],"split_type":[0,0,0,0,0,0,0,0,0,0,0,0,0,0,0,0,0,0,0,0,0,0,0,0,0,0,0,0,0,0,0],"sum_hessian":[9.205096E2,1.7801491E2,7.424946E2,1.1833675E2,5.9678173E1,6.3858105E1,6.7863654E2,5.5410914E0,1.12795654E2,6.6058536E0,5.307232E1,4.7405098E1,1.6453007E1,3.0207901E1,6.4842865E2,7.351614E0,4.5720703E1,5.208728E0,1.1244279E1,1.2784645E1,6.35644E2,1.845145E1,2.7269255E1,2.3368128E1,6.122759E2,9.501173E0,8.950277E0,1.7091187E1,1.0178066E1,5.961703E2,1.6105602E1],"tree_param":{"num_deleted":"0","num_feature":"8536","num_nodes":"31","size_leaf_vector":"1"}},{"base_weights":[9.334503E-3,8.099769E-1,-1.6588849E-1,9.460452E-1,3.544547E-1,9.4747335E-1,-2.718001E-1,9.847882E-1,7.622186E-3,-4.9792275E-2,9.551906E-2,1.0882454E-1,6.880038E-1,1.5989298E0,-3.3489308E-1,3.0411595E-2,1.01513706E-1,3.192268E-2,-3.0334294E-1,1.0530859E-1,4.833757E-1,1.01604514E-1,1.8432431E-1,1.336235E-1,-4.036302E-1,-5.514583E-2,2.1137695E-3,8.667616E-2,1.9027267E-2,-4.6795946E-1,1.2897386E-1,8.946206E-2,-5.4497637E-2],"categories":[],"categories_nodes":[],"categories_segments":[],"categories_sizes":[],"default_left":[0,0,0,1,0,0,0,0,0,0,0,0,0,0,0,0,0,0,0,0,0,0,0,0,1,0,0,0,0,0,0,0,0],"id":18,"left_children":[1,3,5,7,9,11,13,15,-1,17,-1,-1,19,21,23,-1,-1,-1,25,-1,27,-1,-1,-1,29,-1,-1,-1,-1,31,-1,-1,-1],"loss_changes":[1.2678065E2,9.722076E0,8.769101E1,4.115219E0,9.499194E0,1.6119995E0,8.054158E1,2.1486435E0,0E0,2.3625462E0,0E0,0E0,1.3922958E0,1.3012238E0,7.595718E1,0E0,0E0,0E0,1.2085027E0,0E0,1.8755093E0,0E0,0E0,0E0,6.938252E1,0E0,0E0,0E0,0E0,6.439839E1,0E0,0E0,0E0],"parents":[2147483647,0,0,1,1,2,2,3,3,4,4,5,5,6,6,7,7,9,9,12,12,13,13,14,14,18,18,20,20,24,24,29,29],"right_children":[2,4,6,8,10,12,14,16,-1,18,-1,-1,20,22,24,-1,-1,-1,26,-1,28,-1,-1,-1,30,-1,-1,-1,-1,32,-1,-1,-1],"split_conditions":[2.4324523E-1,1.4616288E-1,5.1055235E-1,1.1363274E-1,2.087409E-1,1.6671783E-1,2.3505425E-1,9.277559E-2,7.622186E-3,1.5947247E-1,9.551906E-2,1.0882454E-1,2.023393E-1,1.3136168E-1,6.423652E-1,3.0411595E-2,1.01513706E-1,3.192268E-2,1.8449898E-1,1.0530859E-1,4.8284742E-1,1.01604514E-1,1.8432431E-1,1.336235E-1,1.5063481E-1,-5.514583E-2,2.1137695E-3,8.667616E-2,1.9027267E-2,1.8260898E-1,1.2897386E-1,8.946206E-2,-5.4497637E-2],"split_indices":[1789,1789,3320,3463,1789,3320,2029,1789,0,1789,0,0,3463,7938,7853,0,0,0,1789,0,6311,0,0,0,2119,0,0,0,0,6634,0,0,0],"split_type":[0,0,0,0,0,0,0,0,0,0,0,0,0,0,0,0,0,0,0,0,0,0,0,0,0,0,0,0,0,0,0,0,0],"sum_hessian":[9.017402E2,1.612629E2,7.404773E2,1.2334256E2,3.7920322E1,6.3631E1,6.768463E2,1.17956474E2,5.386087E0,2.3215364E1,1.4704959E1,3.9180164E1,2.4450838E1,2.1288609E1,6.555577E2,5.505206E0,1.1245127E2,9.349306E0,1.3866058E1,7.2929525E0,1.7157887E1,7.8112454E0,1.3477363E1,2.517072E1,6.3038696E2,7.461263E0,6.404795E0,6.5860205E0,1.0571865E1,6.080129E2,2.237411E1,3.19601E1,5.760528E2],"tree_param":{"num_deleted":"0","num_feature":"8536","num_nodes":"33","size_leaf_vector":"1"}},{"base_weights":[4.1154236E-2,7.8429806E-1,-1.1804639E-1,9.20037E-1,4.9618173E-1,1.06981575E-1,-2.2053306E-1,1.2380033E-2,9.6109815E-2,1.0759838E-1,3.6983287E-1,1.4036965E-1,-2.855043E-1,1.1979177E-1,2.2721535E-1,1.8353735E-1,-3.3898148E-1,-8.1910856E-2,4.8567364E-1,1.17586665E-1,-4.1182047E-1,1.1274469E-1,2.9589335E-2,1.4131409E-1,-4.694062E-2],"categories":[],"categories_nodes":[],"categories_segments":[],"categories_sizes":[],"default_left":[0,0,0,0,0,0,0,0,0,0,0,0,0,0,0,0,0,0,0,0,0,0,0,0,0],"id":19,"left_children":[1,3,5,7,9,-1,11,-1,-1,-1,13,-1,15,-1,17,-1,19,-1,21,-1,23,-1,-1,-1,-1],"loss_changes":[1.0293085E2,5.5462723E0,8.749248E1,3.2539139E0,3.3620367E0,0E0,7.011755E1,0E0,0E0,0E0,4.8847165E0,0E0,7.2763954E1,0E0,1.0805193E1,0E0,6.903485E1,0E0,3.5016232E0,0E0,6.303589E1,0E0,0E0,0E0,0E0],"parents":[2147483647,0,0,1,1,2,2,3,3,4,4,6,6,10,10,12,12,14,14,16,16,18,18,20,20],"right_children":[2,4,6,8,10,-1,12,-1,-1,-1,14,-1,16,-1,18,-1,20,-1,22,-1,24,-1,-1,-1,-1],"split_conditions":[2.440066E-1,1.4196746E-1,3.192109E-1,9.5724516E-2,2.5246948E-1,1.06981575E-1,3.7222984E-1,1.2380033E-2,9.6109815E-2,1.0759838E-1,4.9380255E-1,1.4036965E-1,3.2401454E-1,1.1979177E-1,1.6304457E-1,1.8353735E-1,4.761317E-1,-8.1910856E-2,1.8777655E-1,1.17586665E-1,3.2756823E-1,1.1274469E-1,2.9589335E-2,1.4131409E-1,-4.694062E-2],"split_indices":[1789,1789,3320,1789,3175,0,8276,0,0,0,5986,0,1941,0,1789,0,8405,0,5677,0,5022,0,0,0,0],"split_type":[0,0,0,0,0,0,0,0,0,0,0,0,0,0,0,0,0,0,0,0,0,0,0,0,0],"sum_hessian":[8.682348E2,1.5248991E2,7.157449E2,1.0216439E2,5.0325523E1,5.609877E1,6.596461E2,5.2070475E0,9.6957344E1,7.659748E0,4.2665775E1,2.457926E1,6.350669E2,5.1813893E0,3.7484386E1,1.479965E1,6.202672E2,6.9954205E0,3.0488964E1,2.7761513E1,5.925057E2,5.830699E0,2.4658266E1,1.7404255E1,5.7510144E2],"tree_param":{"num_deleted":"0","num_feature":"8536","num_nodes":"25","size_leaf_vector":"1"}},{"base_weights":[1.1991664E-2,7.6931053E-1,-1.6386516E-1,-1.4696481E-2,8.044869E-1,1.1737885E-1,-2.4517244E-1,9.630751E-1,5.3520596E-1,1.393688E-1,-3.125025E-1,3.6587488E-2,1.00093976E-1,1.1728604E-1,4.1856685E-1,1.473452E-1,-3.7916347E-1,1.0279035E-1,3.0673242E-1,1.4489567E-1,-4.458926E-1,1.0221559E-1,1.7125428E-2,1.4187519E-1,-5.1248994E-2],"categories":[],"categories_nodes":[],"categories_segments":[],"categories_sizes":[],"default_left":[0,0,0,0,0,0,0,0,0,0,0,0,0,0,0,0,0,0,0,0,0,0,0,0,0],"id":20,"left_children":[1,3,5,-1,7,-1,9,11,13,-1,15,-1,-1,-1,17,-1,19,-1,21,-1,23,-1,-1,-1,-1],"loss_changes":[1.1155321E2,5.20578E0,7.4225914E1,0E0,5.982689E0,0E0,7.124312E1,1.771019E0,3.8712006E0,0E0,7.403717E1,0E0,0E0,0E0,3.1693363E0,0E0,7.332425E1,0E0,4.150796E0,0E0,7.220036E1,0E0,0E0,0E0,0E0],"parents":[2147483647,0,0,1,1,2,2,4,4,6,6,7,7,8,8,10,10,14,14,16,16,18,18,20,20],"right_children":[2,4,6,-1,8,-1,10,12,14,-1,16,-1,-1,-1,18,-1,20,-1,22,-1,24,-1,-1,-1,-1],"split_conditions":[2.678995E-1,2.0859666E-1,1.3828708E-1,-1.4696481E-2,1.4196746E-1,1.1737885E-1,4.2858422E-1,9.5724516E-2,5.307674E-1,1.393688E-1,7.3065567E-1,3.6587488E-2,1.00093976E-1,1.1728604E-1,2.150219E-1,1.473452E-1,2.646712E-1,1.0279035E-1,2.7358952E-1,1.4489567E-1,2.5726202E-1,1.0221559E-1,1.7125428E-2,1.4187519E-1,-5.1248994E-2],"split_indices":[1789,3463,3463,0,1789,0,8276,1789,4926,0,2029,0,0,0,4956,0,5254,0,2373,0,351,0,0,0,0],"split_type":[0,0,0,0,0,0,0,0,0,0,0,0,0,0,0,0,0,0,0,0,0,0,0,0,0],"sum_hessian":[8.3566766E2,1.5684549E2,6.7882214E2,5.68128E0,1.5116422E2,3.8126987E1,6.406952E2,9.351422E1,5.7649994E1,2.4505877E1,6.1618933E2,6.211364E0,8.730286E1,7.5143476E0,5.0135647E1,2.1412416E1,5.9477686E2,6.5044527E0,4.3631195E1,2.0216242E1,5.7456067E2,5.90479E0,3.7726406E1,1.9113102E1,5.554476E2],"tree_param":{"num_deleted":"0","num_feature":"8536","num_nodes":"25","size_leaf_vector":"1"}},{"base_weights":[2.782555E-2,7.407509E-1,-1.3432871E-1,8.9207995E-1,5.248141E-1,1.6851574E-1,-1.9092044E-1,2.5592789E-2,9.396281E-2,1.15634255E-1,4.1248924E-1,1.2798743E-1,-2.653636E-1,1.11586E-1,2.9272115E-1,8.199208E-1,-3.6077222E-1,1.02288365E-1,1.6107282E-1,1.0412933E-1,3.335667E-1,1.3210842E-1,-4.2691272E-1,1.4255933E-3,9.2927426E-2,-4.619918E-2,7.736366E-2,1.0436114E-1,-5.050948E-2],"categories":[],"categories_nodes":[],"categories_segments":[],"categories_sizes":[],"default_left":[0,0,0,0,0,0,0,0,0,0,0,0,0,0,0,0,0,0,1,0,0,0,0,0,0,0,0,0,0],"id":21,"left_children":[1,3,5,7,9,-1,11,-1,-1,-1,13,-1,15,-1,17,19,21,-1,23,-1,25,-1,27,-1,-1,-1,-1,-1,-1],"loss_changes":[9.365406E1,4.437134E0,6.829653E1,2.3859787E0,4.0829353E0,0E0,7.053848E1,0E0,0E0,0E0,4.4017887E0,0E0,6.3570473E1,0E0,4.5759344E0,5.0020523E0,6.312423E1,0E0,4.8332725E0,0E0,6.313546E0,0E0,6.2825333E1,0E0,0E0,0E0,0E0,0E0,0E0],"parents":[2147483647,0,0,1,1,2,2,3,3,4,4,6,6,10,10,12,12,14,14,15,15,16,16,18,18,20,20,22,22],"right_children":[2,4,6,8,10,-1,12,-1,-1,-1,14,-1,16,-1,18,20,22,-1,24,-1,26,-1,28,-1,-1,-1,-1,-1,-1],"split_conditions":[2.678995E-1,1.3549364E-1,8.7997013E-1,2.0859666E-1,3.8849676E-1,1.6851574E-1,4.2858422E-1,2.5592789E-2,9.396281E-2,1.15634255E-1,6.1448914E-1,1.2798743E-1,3.1493592E-1,1.11586E-1,4.909501E-1,1.8249185E-1,2.473998E-1,1.02288365E-1,1.8613645E-1,1.0412933E-1,2.506285E-1,1.3210842E-1,1.920142E-1,1.4255933E-3,9.2927426E-2,-4.619918E-2,7.736366E-2,1.0436114E-1,-5.050948E-2],"split_indices":[1789,1789,6657,3463,5254,0,8276,0,0,0,5986,0,7500,0,4956,7500,2119,0,3320,0,7500,0,7823,0,0,0,0,0,0],"split_type":[0,0,0,0,0,0,0,0,0,0,0,0,0,0,0,0,0,0,0,0,0,0,0,0,0,0,0,0,0],"sum_hessian":[8.0826825E2,1.4911276E2,6.591555E2,8.583099E1,6.3281773E1,1.90153E1,6.401402E2,6.413018E0,7.941798E1,8.152282E0,5.512949E1,3.0059216E1,6.10081E2,6.811318E0,4.8318172E1,4.8685356E1,5.613956E2,6.3468366E0,4.1971336E1,3.267276E1,1.6012594E1,2.0524092E1,5.408715E2,3.6092064E1,5.879274E0,5.6851544E0,1.0327439E1,2.6680996E1,5.1419055E2],"tree_param":{"num_deleted":"0","num_feature":"8536","num_nodes":"29","size_leaf_vector":"1"}},{"base_weights":[2.8874956E-2,7.2642094E-1,-1.1566972E-1,-4.15941E-3,7.590469E-1,1.2733631E-1,-1.9334166E-1,8.6976546E-1,4.5922032E-1,1.8842463E-1,-2.4600625E-1,9.054637E-2,2.4454562E-2,-2.670435E-2,7.054254E-2,9.3310964E-1,-3.3769935E-1,4.2487208E-2,-5.6150716E-2,1.0962292E-1,5.53782E-1,1.4923815E0,-4.0022516E-1,-6.832642E-3,1.0186794E-1,1.0827833E-1,2.0597239E-1,1.452425E-1,-4.6517394E-2],"categories":[],"categories_nodes":[],"categories_segments":[],"categories_sizes":[],"default_left":[0,0,0,0,0,0,0,1,0,0,0,0,0,0,0,0,0,0,0,0,0,0,0,0,0,0,0,0,0],"id":22,"left_children":[1,3,5,-1,7,-1,9,11,13,-1,15,-1,-1,17,-1,19,21,-1,-1,-1,23,25,27,-1,-1,-1,-1,-1,-1],"loss_changes":[7.865097E1,3.386528E0,6.997874E1,0E0,3.8659058E0,0E0,6.753264E1,1.8479614E0,4.4178934E0,0E0,6.504544E1,0E0,0E0,3.457522E0,0E0,2.0823212E0,6.424669E1,0E0,0E0,0E0,4.4342046E0,2.0892906E0,6.549056E1,0E0,0E0,0E0,0E0,0E0,0E0],"parents":[2147483647,0,0,1,1,2,2,4,4,6,6,7,7,8,8,10,10,13,13,15,15,16,16,20,20,21,21,22,22],"right_children":[2,4,6,-1,8,-1,10,12,14,-1,16,-1,-1,18,-1,20,22,-1,-1,-1,24,26,28,-1,-1,-1,-1,-1,-1],"split_conditions":[2.440066E-1,9.690605E-2,6.423652E-1,-4.15941E-3,1.5675753E-1,1.2733631E-1,3.5118204E-1,1.1903851E-1,1.9092809E-1,1.8842463E-1,4.8284742E-1,9.054637E-2,2.4454562E-2,1.7218754E-1,7.054254E-2,1.8120806E-1,4.1541696E-1,4.2487208E-2,-5.6150716E-2,1.0962292E-1,2.496643E-1,2.0350778E-1,9.4418055E-1,-6.832642E-3,1.0186794E-1,1.0827833E-1,2.0597239E-1,1.452425E-1,-4.6517394E-2],"split_indices":[1789,1789,7853,0,1789,0,5263,3463,1789,0,6311,0,0,1789,0,6311,5022,0,0,0,6311,5022,1864,0,0,0,0,0,0],"split_type":[0,0,0,0,0,0,0,0,0,0,0,0,0,0,0,0,0,0,0,0,0,0,0,0,0,0,0,0,0],"sum_hessian":[7.782287E2,1.328918E2,6.453369E2,5.404109E0,1.27487686E2,3.335973E1,6.119772E2,9.1717705E1,3.5769985E1,1.4269647E1,5.977075E2,8.633972E1,5.3779807E0,1.232876E1,2.3441223E1,4.2464474E1,5.5524304E2,6.7959523E0,5.532808E0,2.8373358E1,1.4091117E1,1.7588005E1,5.37655E2,6.391405E0,7.699712E0,1.1903023E1,5.684983E0,1.7486742E1,5.2016833E2],"tree_param":{"num_deleted":"0","num_feature":"8536","num_nodes":"29","size_leaf_vector":"1"}},{"base_weights":[6.514666E-2,-1.4325424E-1,1.1192611E-1,2.9405805E-1,8.708868E-2,1.2519069E-1,2.6545407E-2,1.609409E0,-2.0990966E-2,9.807798E-2,1.842091E-1,1.18831374E-1,-8.4771454E-2,1.21142425E-1,-1.4763451E-2],"categories":[],"categories_nodes":[],"categories_segments":[],"categories_sizes":[],"default_left":[0,0,0,0,0,0,0,0,0,0,0,0,0,0,0],"id":23,"left_children":[1,-1,3,-1,5,-1,7,9,11,-1,-1,-1,13,-1,-1],"loss_changes":[5.475731E1,0E0,5.290007E1,0E0,5.293199E1,0E0,5.382993E1,1.2442932E0,5.3713943E1,0E0,0E0,0E0,5.4056175E1,0E0,0E0],"parents":[2147483647,0,0,2,2,4,4,6,6,7,7,8,8,12,12],"right_children":[2,-1,4,-1,6,-1,8,10,12,-1,-1,-1,14,-1,-1],"split_conditions":[1.2863925E0,-1.4325424E-1,1.7876185E-1,2.9405805E-1,6.423652E-1,1.2519069E-1,4.909501E-1,1.8452892E-1,4.1541696E-1,9.807798E-2,1.842091E-1,1.18831374E-1,3.7222984E-1,1.21142425E-1,-1.4763451E-2],"split_indices":[3623,0,5783,0,7853,0,4956,4956,5022,0,0,0,8276,0,0],"split_type":[0,0,0,0,0,0,0,0,0,0,0,0,0,0,0],"sum_hessian":[7.782769E2,2.2675505E1,7.5560144E2,5.555106E0,7.500463E2,3.6086407E1,7.139599E2,1.9858435E1,6.9410144E2,6.7735825E0,1.3084852E1,3.389058E1,6.602109E2,2.9692837E1,6.3051807E2],"tree_param":{"num_deleted":"0","num_feature":"8536","num_nodes":"15","size_leaf_vector":"1"}},{"base_weights":[5.9527084E-2,7.003883E-1,-7.450443E-2,8.234369E-1,4.751491E-1,2.1668349E-1,-1.1937682E-1,4.547109E-3,8.826989E-2,1.0812241E-1,3.7128097E-1,3.0697018E-1,-1.5073861E-1,1.0260316E-1,2.3083313E-1,-2.3591362E-1,9.3667877E-1,-5.240257E-2,5.8996897E-2,1.7181915E-1,-2.8746998E-1,1.1100532E-1,5.4824066E-1,3.228295E-2,-4.9786903E-2,1.411088E-1,-3.4820937E-2,-2.4343185E-2,1.08694814E-1],"categories":[],"categories_nodes":[],"categories_segments":[],"categories_sizes":[],"default_left":[0,0,0,0,0,0,0,0,0,0,0,0,1,0,0,0,0,0,0,0,0,0,0,0,0,0,0,0,0],"id":24,"left_children":[1,3,5,7,9,-1,11,-1,-1,-1,13,-1,15,-1,17,19,21,23,-1,-1,25,-1,27,-1,-1,-1,-1,-1,-1],"loss_changes":[6.5128494E1,3.2433395E0,6.3367092E1,3.806984E0,2.6640348E0,0E0,6.208337E1,0E0,0E0,0E0,3.726019E0,0E0,5.6818386E1,0E0,3.7714796E0,5.7665394E1,2.394207E0,3.750755E0,0E0,0E0,5.7621143E1,0E0,6.9755187E0,0E0,0E0,0E0,0E0,0E0,0E0],"parents":[2147483647,0,0,1,1,2,2,3,3,4,4,6,6,10,10,12,12,14,14,15,15,16,16,17,17,20,20,22,22],"right_children":[2,4,6,8,10,-1,12,-1,-1,-1,14,-1,16,-1,18,20,22,24,-1,-1,26,-1,28,-1,-1,-1,-1,-1,-1],"split_conditions":[2.440066E-1,1.4196746E-1,8.987735E-1,9.5724516E-2,5.307674E-1,2.1668349E-1,2.447765E-1,4.547109E-3,8.826989E-2,1.0812241E-1,2.5246948E-1,3.0697018E-1,1.08369306E-1,1.0260316E-1,1.9092809E-1,3.5118204E-1,1.8752287E-1,1.5233307E-1,5.8996897E-2,1.7181915E-1,2.5726202E-1,1.1100532E-1,2.4633454E-1,3.228295E-2,-4.9786903E-2,1.411088E-1,-3.4820937E-2,-2.4343185E-2,1.08694814E-1],"split_indices":[1789,1789,6394,1789,4926,0,7812,0,0,0,3175,0,6311,0,1789,5263,6311,1789,0,0,351,0,6311,0,0,0,0,0,0],"split_type":[0,0,0,0,0,0,0,0,0,0,0,0,0,0,0,0,0,0,0,0,0,0,0,0,0,0,0,0,0],"sum_hessian":[7.5662103E2,1.3014021E2,6.2648083E2,8.2444695E1,4.7695515E1,1.1368034E1,6.151128E2,5.960825E0,7.648387E1,5.6014156E0,4.2094097E1,5.046731E0,6.1006604E2,6.32099E0,3.5773106E1,5.6647815E2,4.3587933E1,2.047746E1,1.5295646E1,1.3730592E1,5.5274756E2,2.8852325E1,1.4735609E1,1.1264379E1,9.213082E0,1.8315947E1,5.344316E2,6.188802E0,8.546807E0],"tree_param":{"num_deleted":"0","num_feature":"8536","num_nodes":"29","size_leaf_vector":"1"}},{"base_weights":[-1.0266464E-2,1.289106E-1,-8.615671E-2,8.5001504E-1,-1.8079554E-1,1.06991135E-1,7.221894E-1,2.2317822E-1,-2.1856824E-1,4.85925E-1,9.33256E-2,1.1577349E-1,-2.8148496E-1,7.953217E-2,-4.9155768E-2,1.3276671E-1,-3.4005156E-1,4.2096984E-2,-4.7462318E-2],"categories":[],"categories_nodes":[],"categories_segments":[],"categories_sizes":[],"default_left":[0,0,0,0,0,0,0,0,0,0,0,0,0,0,0,0,0,0,0],"id":25,"left_children":[1,-1,3,5,7,-1,9,-1,11,13,-1,-1,15,-1,-1,-1,17,-1,-1],"loss_changes":[7.2782455E1,0E0,6.1927E1,1.0315475E0,5.826777E1,0E0,1.7241688E0,0E0,5.446167E1,7.25333E0,0E0,0E0,5.687008E1,0E0,0E0,0E0,5.943747E1,0E0,0E0],"parents":[2147483647,0,0,2,2,3,3,4,4,6,6,8,8,9,9,12,12,16,16],"right_children":[2,-1,4,6,8,-1,10,-1,12,14,-1,-1,16,-1,-1,-1,18,-1,-1],"split_conditions":[7.3065567E-1,1.289106E-1,5.1055235E-1,1.4774607E-1,4.3918008E-1,1.06991135E-1,2.2680192E-1,2.2317822E-1,4.761317E-1,1.8384312E-1,9.33256E-2,1.1577349E-1,2.5726202E-1,7.953217E-2,-4.9155768E-2,1.3276671E-1,2.6279876E-1,4.2096984E-2,-4.7462318E-2],"split_indices":[2029,0,3320,3320,6394,0,3320,0,8405,3320,0,0,351,0,0,0,1789,0,0],"split_type":[0,0,0,0,0,0,0,0,0,0,0,0,0,0,0,0,0,0,0],"sum_hessian":[7.359599E2,3.972984E1,6.9623004E2,6.3188156E1,6.3304193E2,2.0519207E1,4.266895E1,8.863096E0,6.2417883E2,2.169083E1,2.0978119E1,2.6525805E1,5.97653E2,1.6617388E1,5.073443E0,2.022728E1,5.774257E2,8.6444084E1,4.9098163E2],"tree_param":{"num_deleted":"0","num_feature":"8536","num_nodes":"19","size_leaf_vector":"1"}},{"base_weights":[-2.59035E-3,1.256218E-1,-6.511907E-2,1.6183169E0,-1.12841815E-1,8.0098696E-2,2.505647E-1,8.1752217E-1,-1.9830324E-1,1.0070708E-1,5.03033E-1,-2.5739983E-1,1.2533957E-1,8.592632E-3,6.664068E-2,2.2323778E-1,-2.9412046E-1,1.308967E-1,-3.5193253E-2],"categories":[],"categories_nodes":[],"categories_segments":[],"categories_sizes":[],"default_left":[0,0,0,0,0,0,0,0,1,0,0,0,0,0,0,0,0,0,0],"id":26,"left_children":[1,-1,3,5,7,-1,-1,9,11,-1,13,15,-1,-1,-1,-1,17,-1,-1],"loss_changes":[5.5276855E1,0E0,5.3928673E1,1.1415344E1,5.196226E1,0E0,0E0,2.772316E0,5.1581123E1,0E0,1.4884725E0,5.3221527E1,0E0,0E0,0E0,0E0,5.305258E1,0E0,0E0],"parents":[2147483647,0,0,2,2,3,3,4,4,7,7,8,8,10,10,11,11,16,16],"right_children":[2,-1,4,6,8,-1,-1,10,12,-1,14,16,-1,-1,-1,-1,18,-1,-1],"split_conditions":[7.3065567E-1,1.256218E-1,3.27524E-1,2.399468E-1,4.6196374E-1,8.0098696E-2,2.505647E-1,1.8384312E-1,1.5063481E-1,1.0070708E-1,2.2805902E-1,4.3918008E-1,1.2533957E-1,8.592632E-3,6.664068E-2,2.2323778E-1,5.1453406E-1,1.308967E-1,-3.5193253E-2],"split_indices":[2029,0,6910,6910,3320,0,0,3320,2119,0,3320,6394,0,0,0,0,351,0,0],"split_type":[0,0,0,0,0,0,0,0,0,0,0,0,0,0,0,0,0,0,0],"sum_hessian":[7.002308E2,3.2233143E1,6.679976E2,1.7507399E1,6.5049023E2,1.0103573E1,7.403826E0,5.4005104E1,5.964851E2,3.2321865E1,2.1683243E1,5.739434E2,2.254172E1,6.532132E0,1.515111E1,7.4727635E0,5.6647064E2,1.896423E1,5.475064E2],"tree_param":{"num_deleted":"0","num_feature":"8536","num_nodes":"19","size_leaf_vector":"1"}},{"base_weights":[3.477639E-2,6.995343E-1,-1.0491226E-1,8.5504514E-1,4.612747E-1,1.0365553E-1,-1.7658438E-1,2.3865294E-2,8.982906E-2,1.0561915E-1,3.5167038E-1,1.8071377E-1,-2.2063726E-1,1.0368887E-1,2.2844267E-1,-3.1178445E-1,7.650346E-1,9.883641E-2,6.766993E-2,1.5458974E-1,-3.6709568E-1,1.0157829E-1,4.7977707E-1,-5.2168246E-2,5.57443E-2,1.3072054E-1,-4.306666E-2,-7.6691653E-3,6.55611E-2],"categories":[],"categories_nodes":[],"categories_segments":[],"categories_sizes":[],"default_left":[0,0,0,0,0,0,0,0,0,0,0,0,1,0,0,0,0,0,0,0,0,0,0,0,0,0,0,0,0],"id":27,"left_children":[1,3,5,7,9,-1,11,-1,-1,-1,13,-1,15,-1,17,19,21,-1,23,-1,25,-1,27,-1,-1,-1,-1,-1,-1],"loss_changes":[6.563269E1,4.152813E0,4.798401E1,1.7338257E0,2.930519E0,0E0,4.8516464E1,0E0,0E0,0E0,3.5003743E0,0E0,4.871206E1,0E0,4.67306E0,5.1386665E1,2.8000278E0,0E0,9.843721E0,0E0,5.1769264E1,0E0,2.339419E0,0E0,0E0,0E0,0E0,0E0,0E0],"parents":[2147483647,0,0,1,1,2,2,3,3,4,4,6,6,10,10,12,12,14,14,15,15,16,16,18,18,20,20,22,22],"right_children":[2,4,6,8,10,-1,12,-1,-1,-1,14,-1,16,-1,18,20,22,-1,24,-1,26,-1,28,-1,-1,-1,-1,-1,-1],"split_conditions":[2.440066E-1,1.4196746E-1,1.920142E-1,9.186284E-2,5.307674E-1,1.0365553E-1,3.2401454E-1,2.3865294E-2,8.982906E-2,1.0561915E-1,2.7358952E-1,1.8071377E-1,1.13088295E-1,1.0368887E-1,2.5246948E-1,4.5579946E-1,1.8249185E-1,9.883641E-2,1.8449898E-1,1.5458974E-1,2.8375337E-1,1.0157829E-1,2.509697E-1,-5.2168246E-2,5.57443E-2,1.3072054E-1,-4.306666E-2,-7.6691653E-3,6.55611E-2],"split_indices":[1789,1789,7823,1789,4926,0,1941,0,0,0,2373,0,7500,0,3175,1864,7500,0,1789,0,7853,0,7500,0,0,0,0,0,0],"split_type":[0,0,0,0,0,0,0,0,0,0,0,0,0,0,0,0,0,0,0,0,0,0,0,0,0,0,0,0,0],"sum_hessian":[7.050081E2,1.21725655E2,5.832825E2,7.2086464E1,4.963919E1,3.3664886E1,5.496176E2,5.1532974E0,6.693317E1,6.3789186E0,4.3260273E1,1.107083E1,5.3854675E2,5.4638205E0,3.779645E1,4.9358737E2,4.4959396E1,5.7011857E0,3.209527E1,1.3492124E1,4.8009525E2,2.2564085E1,2.239531E1,1.4537224E1,1.7558043E1,1.6846163E1,4.6324908E2,5.512745E0,1.6882565E1],"tree_param":{"num_deleted":"0","num_feature":"8536","num_nodes":"29","size_leaf_vector":"1"}},{"base_weights":[5.25911E-2,1.1308525E0,-8.1253E-3,1.492748E-1,8.43619E-1,1.5868628E-1,-5.4518092E-2,4.7233835E-2,1.1438495E-1,1.4366746E0,-1.03623174E-1,1.0249072E-1,2.0429265E-1,1.6661596E0,-1.47902E-1,2.2917461E-1,1.00783825E-1,2.633164E-1,-1.7728268E-1,1.6645627E-1,-2.2216925E-2],"categories":[],"categories_nodes":[],"categories_segments":[],"categories_sizes":[],"default_left":[0,0,0,0,0,0,0,0,0,0,0,0,0,0,0,0,0,0,0,0,0],"id":28,"left_children":[1,3,5,-1,7,-1,9,-1,-1,11,13,-1,-1,15,17,-1,-1,-1,19,-1,-1],"loss_changes":[4.4339767E1,2.4935951E0,4.759402E1,0E0,1.9597244E0,0E0,4.5903503E1,0E0,0E0,2.89579E0,4.7724068E1,0E0,0E0,3.8142204E0,4.8838184E1,0E0,0E0,0E0,4.8877975E1,0E0,0E0],"parents":[2147483647,0,0,1,1,2,2,4,4,6,6,9,9,10,10,13,13,14,14,18,18],"right_children":[2,4,6,-1,8,-1,10,-1,-1,12,14,-1,-1,16,18,-1,-1,-1,20,-1,-1],"split_conditions":[3.8849676E-1,1.679558E-1,3.0865133E-1,1.492748E-1,2.4578117E-1,1.5868628E-1,3.571963E-1,4.7233835E-2,1.1438495E-1,2.141936E-1,3.1499603E-1,1.0249072E-1,2.0429265E-1,1.9535302E-1,1.8209548E-1,2.2917461E-1,1.00783825E-1,2.633164E-1,5.7236075E-1,1.6645627E-1,-2.2216925E-2],"split_indices":[5254,5254,5677,0,5254,0,607,0,0,607,2718,0,0,2718,5783,0,0,0,3913,0,0],"split_type":[0,0,0,0,0,0,0,0,0,0,0,0,0,0,0,0,0,0,0,0,0],"sum_hessian":[6.76132E2,3.5103554E1,6.410285E2,1.3675867E1,2.1427687E1,1.7179821E1,6.2384863E2,1.0730743E1,1.0696943E1,1.8987606E1,6.04861E2,1.2909807E1,6.0778E0,1.3869793E1,5.909913E2,5.8394814E0,8.030312E0,5.2518134E0,5.8573944E2,1.3076662E1,5.726628E2],"tree_param":{"num_deleted":"0","num_feature":"8536","num_nodes":"21","size_leaf_vector":"1"}},{"base_weights":[5.204612E-2,-1.4480697E-1,9.787744E-2,1.6818026E-1,5.5846527E-2,1.5525512E0,1.2505897E-2,8.5058525E-2,2.4485438E-1,8.574611E-2,-6.702089E-2,1.4426107E0,-1.1300435E-1,1.0077267E-1,1.9510387E-1,2.2367679E-1,-1.4356527E-2],"categories":[],"categories_nodes":[],"categories_segments":[],"categories_sizes":[],"default_left":[0,0,0,0,0,0,0,0,0,0,0,0,0,0,0,0,0],"id":29,"left_children":[1,-1,3,-1,5,7,9,-1,-1,-1,11,13,15,-1,-1,-1,-1],"loss_changes":[4.588185E1,0E0,4.29462E1,0E0,4.0900974E1,9.078014E0,4.132151E1,0E0,0E0,0E0,3.918862E1,1.724289E0,3.9565323E1,0E0,0E0,0E0,0E0],"parents":[2147483647,0,0,2,2,4,4,5,5,6,6,10,10,11,11,12,12],"right_children":[2,-1,4,-1,6,8,10,-1,-1,-1,12,14,16,-1,-1,-1,-1],"split_conditions":[1.2863925E0,-1.4480697E-1,2.7795386E-1,1.6818026E-1,3.27524E-1,2.399468E-1,5.1055235E-1,8.5058525E-2,2.4485438E-1,8.574611E-2,3.571963E-1,1.9466883E-1,4.3918008E-1,1.0077267E-1,1.9510387E-1,2.2367679E-1,-1.4356527E-2],"split_indices":[3623,0,4956,0,6910,6910,3320,0,0,0,607,607,6394,0,0,0,0],"split_type":[0,0,0,0,0,0,0,0,0,0,0,0,0,0,0,0,0],"sum_hessian":[6.6428864E2,1.8786533E1,6.455021E2,1.5677714E1,6.298244E2,1.6744816E1,6.130796E2,1.0482005E1,6.2628107E0,5.189751E1,5.6118207E2,1.5690556E1,5.454915E2,1.006419E1,5.626365E0,6.076675E0,5.3941486E2],"tree_param":{"num_deleted":"0","num_feature":"8536","num_nodes":"17","size_leaf_vector":"1"}},{"base_weights":[6.629137E-2,1.430951E-1,1.5988272E-2,1.1140987E0,-4.524193E-2,1.6069716E-1,7.343079E-1,1.5760946E-1,-8.655179E-2,1.084764E-1,4.0304908E-1,1.183069E-1,-1.4339337E-1,-1.2861256E-3,7.560761E-2,1.3619828E-1,-1.9045566E-1,1.6083246E-1,-2.3298502E-2],"categories":[],"categories_nodes":[],"categories_segments":[],"categories_sizes":[],"default_left":[0,0,0,0,0,0,0,0,0,0,0,0,0,0,0,0,0,0,0],"id":30,"left_children":[1,-1,3,5,7,-1,9,-1,11,-1,13,-1,15,-1,-1,-1,17,-1,-1],"loss_changes":[4.613051E1,0E0,4.3717304E1,5.247883E0,4.1401287E1,0E0,2.0280972E0,0E0,4.359582E1,0E0,1.8462703E0,0E0,4.1127144E1,0E0,0E0,0E0,4.32336E1,0E0,0E0],"parents":[2147483647,0,0,2,2,3,3,4,4,6,6,8,8,10,10,12,12,16,16],"right_children":[2,-1,4,6,8,-1,10,-1,12,-1,14,-1,16,-1,-1,-1,18,-1,-1],"split_conditions":[8.7997013E-1,1.430951E-1,3.8849676E-1,1.679558E-1,2.2751315E-1,1.6069716E-1,2.6279876E-1,1.5760946E-1,4.2858422E-1,1.084764E-1,2.4578117E-1,1.183069E-1,5.2694833E-1,-1.2861256E-3,7.560761E-2,1.3619828E-1,5.7236075E-1,1.6083246E-1,-2.3298502E-2],"split_indices":[6657,0,5254,5254,5677,0,1789,0,8276,0,5254,0,368,0,0,0,3913,0,0],"split_type":[0,0,0,0,0,0,0,0,0,0,0,0,0,0,0,0,0,0,0],"sum_hessian":[6.713331E2,2.2890701E1,6.4844244E2,3.333912E1,6.1510333E2,1.3103225E1,2.0235893E1,1.4359668E1,6.0074365E2,8.727713E0,1.1508182E1,2.4894024E1,5.758497E2,5.725908E0,5.7822733E0,1.6609922E1,5.5923975E2,1.2066581E1,5.4717316E2],"tree_param":{"num_deleted":"0","num_feature":"8536","num_nodes":"19","size_leaf_vector":"1"}},{"base_weights":[-3.0529378E-3,2.3878245E-1,-3.0086217E-2,-9.4372876E-2,1.0232192E0,6.5158E-1,-2.0260605E-1,1.1315494E-1,5.7225373E-2,7.2048134E-3,6.921841E-1,1.7321926E-1,-2.5263837E-1,7.987736E-2,3.7019938E-1,1.1745571E-1,-3.1480506E-1,8.058119E-3,9.364583E-2,1.5643208E-1,-3.6156815E-2],"categories":[],"categories_nodes":[],"categories_segments":[],"categories_sizes":[],"default_left":[0,0,1,0,0,0,0,0,0,0,0,0,0,0,0,0,0,0,0,0,0],"id":31,"left_children":[1,-1,3,5,7,9,11,-1,-1,-1,13,-1,15,-1,17,-1,19,-1,-1,-1,-1],"loss_changes":[4.191899E1,0E0,4.3514736E1,4.8996857E1,1.1584702E0,1.7603111E0,5.1676132E1,0E0,0E0,0E0,2.1675568E0,0E0,4.6225883E1,0E0,3.1576593E0,0E0,4.415585E1,0E0,0E0,0E0,0E0],"parents":[2147483647,0,0,2,2,3,3,4,4,5,5,6,6,10,10,12,12,14,14,16,16],"right_children":[2,-1,4,6,8,10,12,-1,-1,-1,14,-1,16,-1,18,-1,20,-1,-1,-1,-1],"split_conditions":[2.447765E-1,2.3878245E-1,1.2772284E-1,1.7218754E-1,1.93543E-1,9.5724516E-2,3.5118204E-1,1.1315494E-1,5.7225373E-2,7.2048134E-3,1.4196746E-1,1.7321926E-1,4.2858422E-1,7.987736E-2,1.6314854E-1,1.1745571E-1,3.2401454E-1,8.058119E-3,9.364583E-2,1.5643208E-1,-3.6156815E-2],"split_indices":[7812,0,7172,1789,7172,1789,5263,0,0,0,1789,0,8276,0,1789,0,1941,0,0,0,0],"split_type":[0,0,0,0,0,0,0,0,0,0,0,0,0,0,0,0,0,0,0,0,0],"sum_hessian":[6.464554E2,6.2512727E0,6.4020416E2,6.04236E2,3.5968086E1,7.592613E1,5.2830994E2,2.7784565E1,8.183523E0,5.153009E0,7.077312E1,1.2469782E1,5.1584015E2,5.2058838E1,1.8714283E1,2.0784523E1,4.950556E2,1.3137364E1,5.5769186E0,1.1232614E1,4.83823E2],"tree_param":{"num_deleted":"0","num_feature":"8536","num_nodes":"21","size_leaf_vector":"1"}},{"base_weights":[8.945214E-2,1.4625992E-1,4.3891836E-2,2.3734689E-1,1.9363992E-2,1.3711449E0,-2.3184922E-2,6.929695E-1,2.0974688E-1,5.9087986E-1,-1.3016105E-1,1.8647028E-2,1.08775295E-1,7.485052E-1,3.7729684E-1,1.0130562E-1,-1.9674794E-1,3.286014E-3,8.293878E-2,3.6033956E-4,6.192258E-2,2.0727932E-1,-2.3105703E-2],"categories":[],"categories_nodes":[],"categories_segments":[],"categories_sizes":[],"default_left":[0,0,0,0,0,0,0,1,0,0,0,0,0,0,0,0,0,0,0,0,0,0,0],"id":32,"left_children":[1,-1,3,-1,5,7,9,11,-1,13,15,-1,-1,17,19,-1,21,-1,-1,-1,-1,-1,-1],"loss_changes":[3.9606453E1,0E0,3.5082188E1,0E0,3.5081467E1,7.7144737E0,3.895038E1,2.0204105E0,0E0,2.679451E0,3.8625725E1,0E0,0E0,2.8439503E0,3.5574694E0,0E0,3.7686802E1,0E0,0E0,0E0,0E0,0E0,0E0],"parents":[2147483647,0,0,2,2,4,4,5,5,6,6,7,7,9,9,10,10,13,13,14,14,16,16],"right_children":[2,-1,4,-1,6,8,10,12,-1,14,16,-1,-1,18,20,-1,22,-1,-1,-1,-1,-1,-1],"split_conditions":[8.7997013E-1,1.4625992E-1,3.819649E-1,2.3734689E-1,3.27524E-1,2.399468E-1,2.3410936E-1,1.4204592E-1,2.0974688E-1,1.3549364E-1,2.1474296E-1,1.8647028E-2,1.08775295E-1,9.726844E-2,1.6774361E-1,1.0130562E-1,1.9110927E-1,3.286014E-3,8.293878E-2,3.6033956E-4,6.192258E-2,2.0727932E-1,-2.3105703E-2],"split_indices":[6657,0,6670,0,6910,6910,1789,6311,0,1789,7823,0,0,1789,1789,0,5783,0,0,0,0,0,0],"split_type":[0,0,0,0,0,0,0,0,0,0,0,0,0,0,0,0,0,0,0,0,0,0,0],"sum_hessian":[6.331116E2,1.9332895E1,6.137787E2,5.3972645E0,6.083814E2,1.7612312E1,5.907691E2,1.011858E1,7.4937334E0,8.697743E1,5.037917E2,5.0770993E0,5.04148E0,4.860338E1,3.8374054E1,2.6946064E1,4.768456E2,5.078178E0,4.35252E1,1.54791765E1,2.2894876E1,6.2163982E0,4.706292E2],"tree_param":{"num_deleted":"0","num_feature":"8536","num_nodes":"23","size_leaf_vector":"1"}},{"base_weights":[2.5883164E-2,1.24288715E-1,-3.3604354E-2,1.5354548E-1,-7.766296E-2,1.1946552E-1,-1.3195634E-1,1.3452344E-1,-1.7920837E-1,8.434439E-2,-2.5646326E-1,1.14604E-1,-3.1292994E-2],"categories":[],"categories_nodes":[],"categories_segments":[],"categories_sizes":[],"default_left":[0,0,0,0,0,0,0,0,0,0,0,0,0],"id":33,"left_children":[1,-1,3,-1,5,-1,7,-1,9,-1,11,-1,-1],"loss_changes":[4.549174E1,0E0,4.1563656E1,0E0,4.050545E1,0E0,3.9404797E1,0E0,4.32403E1,0E0,4.0517536E1,0E0,0E0],"parents":[2147483647,0,0,2,2,4,4,6,6,8,8,10,10],"right_children":[2,-1,4,-1,6,-1,8,-1,10,-1,12,-1,-1],"split_conditions":[7.3065567E-1,1.24288715E-1,3.2401454E-1,1.5354548E-1,6.423652E-1,1.1946552E-1,8.7997013E-1,1.3452344E-1,2.9906029E-1,8.434439E-2,2.473998E-1,1.14604E-1,-3.1292994E-2],"split_indices":[2029,0,1941,0,7853,0,6657,0,7500,0,2119,0,0],"split_type":[0,0,0,0,0,0,0,0,0,0,0,0,0],"sum_hessian":[6.2679205E2,2.8282917E1,5.9850916E2,1.542236E1,5.830868E2,2.3004013E1,5.6008276E2,1.6509026E1,5.435737E2,3.748275E1,5.0609097E2,1.8840483E1,4.872505E2],"tree_param":{"num_deleted":"0","num_feature":"8536","num_nodes":"13","size_leaf_vector":"1"}},{"base_weights":[6.5665044E-2,1.2342813E-1,1.23568205E-2,1.6745737E-1,-2.264413E-2,1.3496688E-1,-6.2583074E-2,1.3141041E0,-1.04848295E-1,6.5536365E-2,2.0151217E-1,1.13317445E-1,-1.5423086E-1,1.3350968E-1,-1.9692441E-2],"categories":[],"categories_nodes":[],"categories_segments":[],"categories_sizes":[],"default_left":[0,0,0,0,0,0,0,0,0,0,0,0,0,0,0],"id":34,"left_children":[1,-1,3,-1,5,-1,7,9,11,-1,-1,-1,13,-1,-1],"loss_changes":[3.8106483E1,0E0,3.414547E1,0E0,3.1607533E1,0E0,3.2712467E1,6.414009E0,3.343853E1,0E0,0E0,0E0,3.358751E1,0E0,0E0],"parents":[2147483647,0,0,2,2,4,4,6,6,7,7,8,8,12,12],"right_children":[2,-1,4,-1,6,-1,8,10,12,-1,-1,-1,14,-1,-1],"split_conditions":[7.3065567E-1,1.2342813E-1,8.987735E-1,1.6745737E-1,8.7997013E-1,1.3496688E-1,3.27524E-1,2.399468E-1,3.7222984E-1,6.5536365E-2,2.0151217E-1,1.13317445E-1,3.2401454E-1,1.3350968E-1,-1.9692441E-2],"split_indices":[2029,0,6394,0,6657,0,6910,6910,8276,0,0,0,1941,0,0],"split_type":[0,0,0,0,0,0,0,0,0,0,0,0,0,0,0],"sum_hessian":[6.109367E2,2.5686512E1,5.852502E2,1.11033125E1,5.7414685E2,1.5309655E1,5.588372E2,1.5749326E1,5.430879E2,9.117016E0,6.63231E0,1.999004E1,5.2309784E2,1.3733819E1,5.0936404E2],"tree_param":{"num_deleted":"0","num_feature":"8536","num_nodes":"15","size_leaf_vector":"1"}},{"base_weights":[8.36925E-3,-1.3981502E-1,4.9932793E-2,1.6576505E-1,1.5364472E-2,1.218698E-1,-3.242873E-2,1.1729603E-1,-8.4701635E-2,1.6162716E-1,-1.2370808E-1,1.6211621E-1,-1.5970167E-2],"categories":[],"categories_nodes":[],"categories_segments":[],"categories_sizes":[],"default_left":[0,0,0,0,0,0,0,0,0,0,0,0,0],"id":35,"left_children":[1,-1,3,-1,5,-1,7,-1,9,-1,11,-1,-1],"loss_changes":[3.5311584E1,0E0,3.256986E1,0E0,3.311783E1,0E0,3.5016895E1,0E0,3.5501907E1,0E0,3.298404E1,0E0,0E0],"parents":[2147483647,0,0,2,2,4,4,6,6,8,8,10,10],"right_children":[2,-1,4,-1,6,-1,8,-1,10,-1,12,-1,-1],"split_conditions":[1.2863925E0,-1.3981502E-1,3.75438E-1,1.6576505E-1,1.5880169E-1,1.218698E-1,7.3065567E-1,1.1729603E-1,3.0865133E-1,1.6162716E-1,2.6780772E-1,1.6211621E-1,-1.5970167E-2],"split_indices":[4698,0,298,0,6634,0,2029,0,5677,0,4971,0,0],"split_type":[0,0,0,0,0,0,0,0,0,0,0,0,0],"sum_hessian":[6.0183636E2,1.6337368E1,5.85499E2,1.1335807E1,5.741632E2,2.0997227E1,5.53166E2,2.210046E1,5.3106555E2,1.0998815E1,5.200667E2,9.621114E0,5.1044562E2],"tree_param":{"num_deleted":"0","num_feature":"8536","num_nodes":"13","size_leaf_vector":"1"}},{"base_weights":[3.4950312E-2,1.1565828E-1,-1.1776074E-2,1.44221E-1,-5.0538022E-2,-1.06646605E-1,1.0494195E0,1.1681016E-1,-1.6055611E-1,8.29753E-2,1.5344381E-1,-1.907787E-1,1.9736646E-1,1.9842847E-1,-2.2078978E-2],"categories":[],"categories_nodes":[],"categories_segments":[],"categories_sizes":[],"default_left":[0,0,0,0,1,0,0,0,1,0,0,0,0,0,0],"id":36,"left_children":[1,-1,3,-1,5,7,9,-1,11,-1,-1,13,-1,-1,-1],"loss_changes":[3.1129375E1,0E0,3.2251057E1,0E0,3.4493694E1,3.6675476E1,1.6172829E0,0E0,3.3291294E1,0E0,0E0,3.3342392E1,0E0,0E0,0E0],"parents":[2147483647,0,0,2,2,4,4,5,5,6,6,8,8,11,11],"right_children":[2,-1,4,-1,6,8,10,-1,12,-1,-1,14,-1,-1,-1],"split_conditions":[6.423652E-1,1.1565828E-1,3.2401454E-1,1.44221E-1,1.2888311E-1,4.5579946E-1,2.1783598E-1,1.1681016E-1,1.9156599E-1,8.29753E-2,1.5344381E-1,1.7876185E-1,1.9736646E-1,1.9842847E-1,-2.2078978E-2],"split_indices":[7853,0,1941,0,5022,1864,5022,0,3769,0,0,5783,0,0,0],"split_type":[0,0,0,0,0,0,0,0,0,0,0,0,0,0,0],"sum_hessian":[5.927007E2,2.2754057E1,5.6994666E2,1.3859536E1,5.560871E2,5.2995715E2,2.612995E1,2.0664114E1,5.0929303E2,1.9850403E1,6.2795467E0,5.0307956E2,6.2134757E0,5.9606504E0,4.971189E2],"tree_param":{"num_deleted":"0","num_feature":"8536","num_nodes":"15","size_leaf_vector":"1"}},{"base_weights":[8.8702306E-2,-1.3702968E-1,1.274813E-1,1.3647449E-1,7.895075E-2,5.259197E-2,2.279704E-1,9.476491E-2,-1.3108646E-2,1.3577329E-1,-6.234184E-2,1.0809094E-1,-1.2663962E-2],"categories":[],"categories_nodes":[],"categories_segments":[],"categories_sizes":[],"default_left":[0,0,0,0,1,0,0,0,0,0,0,0,0],"id":37,"left_children":[1,-1,3,-1,5,7,-1,-1,9,-1,11,-1,-1],"loss_changes":[3.3616886E1,0E0,3.4519485E1,0E0,3.213219E1,3.2380653E1,0E0,0E0,3.4759567E1,0E0,3.6664417E1,0E0,0E0],"parents":[2147483647,0,0,2,2,4,4,5,5,8,8,10,10],"right_children":[2,-1,4,-1,6,8,-1,-1,10,-1,12,-1,-1],"split_conditions":[1.2863925E0,-1.3702968E-1,2.4689265E-1,1.3647449E-1,2.194608E-1,3.0046448E-1,2.279704E-1,9.476491E-2,8.7997013E-1,1.3577329E-1,1.8260898E-1,1.0809094E-1,-1.2663962E-2],"split_indices":[3623,0,5254,0,4699,7500,0,0,6657,0,6634,0,0],"split_type":[0,0,0,0,0,0,0,0,0,0,0,0,0],"sum_hessian":[5.90076E2,1.438867E1,5.756873E2,2.0704876E1,5.549825E2,5.494258E2,5.5566645E0,3.6654053E1,5.127717E2,1.6856081E1,4.9591568E2,2.5563906E1,4.7035178E2],"tree_param":{"num_deleted":"0","num_feature":"8536","num_nodes":"13","size_leaf_vector":"1"}},{"base_weights":[2.3227476E-2,1.5545441E0,-1.4390746E-2,2.007591E-1,9.668344E-2,-7.873252E-2,8.517877E-1,1.5344301E-1,-1.1619629E-1,1.0276902E-1,5.407476E-1,1.2831214E-1,-1.6019635E-1,-1.2183926E-2,1.117769E-1,-2.1393652E-1,1.025704E0,1.5562187E-1,-2.5055617E-2,7.664498E-2,1.457908E-1],"categories":[],"categories_nodes":[],"categories_segments":[],"categories_sizes":[],"default_left":[0,0,1,0,0,0,0,0,0,0,0,0,1,0,0,0,0,0,0,0,0],"id":38,"left_children":[1,3,5,-1,-1,7,9,-1,11,-1,13,-1,15,-1,-1,17,19,-1,-1,-1,-1],"loss_changes":[3.335396E1,1.7553978E0,3.1596376E1,0E0,0E0,3.2059853E1,1.5891819E0,0E0,3.200585E1,0E0,6.357466E0,0E0,3.2188774E1,0E0,0E0,3.1550995E1,1.3386364E0,0E0,0E0,0E0,0E0],"parents":[2147483647,0,0,1,1,2,2,5,5,6,6,8,8,10,10,12,12,15,15,16,16],"right_children":[2,4,6,-1,-1,8,10,-1,12,-1,14,-1,16,-1,-1,18,20,-1,-1,-1,-1],"split_conditions":[3.1499603E-1,1.9535302E-1,1.08369306E-1,2.007591E-1,9.668344E-2,5.7236075E-1,1.8120806E-1,1.5344301E-1,2.5726202E-1,1.0276902E-1,2.496643E-1,1.2831214E-1,1.3151224E-1,-1.2183926E-2,1.117769E-1,4.0436512E-1,2.1175413E-1,1.5562187E-1,-2.5055617E-2,7.664498E-2,1.457908E-1],"split_indices":[2718,2718,6311,0,0,3913,6311,0,351,0,6311,0,5022,0,0,887,5022,0,0,0,0],"split_type":[0,0,0,0,0,0,0,0,0,0,0,0,0,0,0,0,0,0,0,0,0],"sum_hessian":[5.776191E2,1.2882675E1,5.647364E2,5.9104986E0,6.972176E0,5.265334E2,3.8203037E1,1.1043662E1,5.154897E2,2.2930891E1,1.5272146E1,1.4856368E1,5.0063333E2,7.476183E0,7.795964E0,4.7971426E2,2.0919094E1,8.881776E0,4.708325E2,1.4809238E1,6.109856E0],"tree_param":{"num_deleted":"0","num_feature":"8536","num_nodes":"21","size_leaf_vector":"1"}},{"base_weights":[5.566261E-2,1.6667878E-2,1.4316292E0,1.3036565E-1,-2.650315E-2,2.0885734E-1,8.840339E-2,1.3680817E0,-6.817374E-2,7.3545925E-2,1.9007863E-1,-9.564763E-2,2.1807472E-1,1.1644449E-1,-1.43011E-1,1.4049585E-1,-1.841238E-2],"categories":[],"categories_nodes":[],"categories_segments":[],"categories_sizes":[],"default_left":[1,0,1,0,0,0,0,0,1,0,0,0,0,0,0,0,0],"id":39,"left_children":[1,3,5,-1,7,-1,-1,9,11,-1,-1,13,-1,-1,15,-1,-1],"loss_changes":[2.9509932E1,2.9830412E1,3.6064053E0,0E0,3.0303488E1,0E0,0E0,3.7009068E0,3.1455408E1,0E0,0E0,3.004201E1,0E0,0E0,3.1018631E1,0E0,0E0],"parents":[2147483647,0,0,1,1,2,2,4,4,7,7,8,8,11,11,14,14],"right_children":[2,4,6,-1,8,-1,-1,10,12,-1,-1,14,-1,-1,16,-1,-1],"split_conditions":[1.6533679E-1,2.4689265E-1,1.0831221E-1,1.3036565E-1,3.27524E-1,2.0885734E-1,8.840339E-2,2.399468E-1,2.194608E-1,7.3545925E-2,1.9007863E-1,1.974838E-1,2.1807472E-1,1.1644449E-1,4.4362122E-1,1.4049585E-1,-1.841238E-2],"split_indices":[7942,5254,1789,0,6910,0,0,6910,4699,0,0,5099,0,0,2373,0,0],"split_type":[0,0,0,0,0,0,0,0,0,0,0,0,0,0,0,0,0],"sum_hessian":[5.494342E2,5.352766E2,1.4157563E1,1.6425064E1,5.1885156E2,5.156856E0,9.000708E0,1.4130104E1,5.0472147E2,7.5475254E0,6.5825787E0,4.9957587E2,5.14559E0,1.7243038E1,4.8233282E2,1.1620667E1,4.7071216E2],"tree_param":{"num_deleted":"0","num_feature":"8536","num_nodes":"17","size_leaf_vector":"1"}},{"base_weights":[5.3403076E-2,1.4868499E0,1.491846E-2,9.601382E-2,1.9526592E-1,1.2225854E-1,-3.1154057E-2,1.0540731E0,-8.763314E-2,1.4578916E-1,7.22289E-1,1.5773372E-1,-1.24686465E-1,1.3300955E-2,1.062326E-1,1.1863446E-1,-1.7301841E-1,1.7044304E-1,-2.0708814E-2],"categories":[],"categories_nodes":[],"categories_segments":[],"categories_sizes":[],"default_left":[0,0,0,0,0,0,0,0,0,0,0,0,0,0,0,0,0,0,0],"id":40,"left_children":[1,3,5,-1,-1,-1,7,9,11,-1,13,-1,15,-1,-1,-1,17,-1,-1],"loss_changes":[3.1076712E1,1.7389259E0,3.0640642E1,0E0,0E0,0E0,3.2624718E1,2.4751549E0,3.1378458E1,0E0,3.1524944E0,0E0,3.159363E1,0E0,0E0,0E0,3.0967564E1,0E0,0E0],"parents":[2147483647,0,0,1,1,2,2,6,6,7,7,8,8,10,10,12,12,16,16],"right_children":[2,4,6,-1,-1,-1,8,10,12,-1,14,-1,16,-1,-1,-1,18,-1,-1],"split_conditions":[3.571963E-1,2.0131014E-1,3.6944595E-1,9.601382E-2,1.9526592E-1,1.2225854E-1,3.8849676E-1,1.679558E-1,1.383875E-1,1.4578916E-1,2.3970304E-1,1.5773372E-1,3.0927113E-1,1.3300955E-2,1.062326E-1,1.1863446E-1,3.75438E-1,1.7044304E-1,-2.0708814E-2],"split_indices":[607,607,1864,0,0,0,5254,5254,3510,0,5254,0,7853,0,0,0,298,0,0],"split_type":[0,0,0,0,0,0,0,0,0,0,0,0,0,0,0,0,0,0,0],"sum_hessian":[5.627365E2,1.3729128E1,5.490074E2,7.880037E0,5.849091E0,1.9236567E1,5.297708E2,2.5333467E1,5.0443738E2,9.895471E0,1.5437996E1,1.0076709E1,4.9436066E2,6.157791E0,9.280206E0,1.673975E1,4.776209E2,7.638984E0,4.6998193E2],"tree_param":{"num_deleted":"0","num_feature":"8536","num_nodes":"19","size_leaf_vector":"1"}},{"base_weights":[6.832518E-2,1.6859746E-1,3.5964154E-2,2.173184E-1,1.2311101E-2,5.1238173E-1,-9.726302E-2,1.1285187E-1,4.35836E-1,1.6952103E-1,-1.3605721E-1,7.591431E-1,2.3815374E-1,9.918398E-2,-1.9800904E-1,3.0968854E-2,8.518381E-2,1.0018598E-1,8.745869E-3,1.9335464E-1,-2.2951514E-2],"categories":[],"categories_nodes":[],"categories_segments":[],"categories_sizes":[],"default_left":[0,0,0,0,0,0,0,0,0,0,0,0,0,0,0,0,0,0,0,0,0],"id":41,"left_children":[1,-1,3,-1,5,7,9,-1,11,-1,13,15,17,-1,19,-1,-1,-1,-1,-1,-1],"loss_changes":[2.9212227E1,0E0,2.7738483E1,0E0,2.9871206E1,4.129038E0,3.1331978E1,0E0,5.493305E0,0E0,3.0851402E1,1.120594E0,6.4206023E0,0E0,2.8428205E1,0E0,0E0,0E0,0E0,0E0,0E0],"parents":[2147483647,0,0,2,2,4,4,5,5,6,6,8,8,10,10,11,11,12,12,14,14],"right_children":[2,-1,4,-1,6,8,10,-1,12,-1,14,16,18,-1,20,-1,-1,-1,-1,-1,-1],"split_conditions":[2.2159413E-1,1.6859746E-1,7.639398E-1,2.173184E-1,2.6279876E-1,5.307674E-1,8.987735E-1,1.1285187E-1,1.16733275E-1,1.6952103E-1,1.920142E-1,1.019526E-1,2.900425E-1,9.918398E-2,5.117183E-1,3.0968854E-2,8.518381E-2,1.0018598E-1,8.745869E-3,1.9335464E-1,-2.2951514E-2],"split_indices":[5263,0,6670,0,1789,4926,6394,0,1789,0,7823,1789,2207,0,0,0,0,0,0,0,0],"split_type":[0,0,0,0,0,0,0,0,0,0,0,0,0,0,0,0,0,0,0,0,0],"sum_hessian":[5.581889E2,9.945361E0,5.482436E2,5.0063586E0,5.432372E2,9.6977684E1,4.4625952E2,9.197943E0,8.777974E1,8.549192E0,4.3771033E2,3.222913E1,5.555061E1,2.2008738E1,4.157016E2,6.2526293E0,2.5976501E1,8.224003E0,4.7326607E1,5.175579E0,4.1052603E2],"tree_param":{"num_deleted":"0","num_feature":"8536","num_nodes":"21","size_leaf_vector":"1"}},{"base_weights":[4.7837697E-2,1.5735935E-1,1.0936114E-2,1.4776587E-1,-2.294614E-2,1.5664302E-1,-5.3646043E-2,-1.1959953E-1,7.0753306E-1,1.8863453E-1,-1.46585E-1,9.4326355E-2,4.026889E-1,1.4523827E-1,-1.8116994E-2,1.3262231E-3,5.9134167E-2],"categories":[],"categories_nodes":[],"categories_segments":[],"categories_sizes":[],"default_left":[0,0,0,0,0,0,1,0,0,0,0,0,0,0,0,0,0],"id":42,"left_children":[1,-1,3,-1,5,-1,7,9,11,-1,13,-1,15,-1,-1,-1,-1],"loss_changes":[3.0240011E1,0E0,2.6159924E1,0E0,2.5204622E1,0E0,2.548923E1,2.553141E1,2.5301895E0,0E0,2.5772186E1,0E0,1.4176886E0,0E0,0E0,0E0,0E0],"parents":[2147483647,0,0,2,2,4,4,6,6,7,7,8,8,10,10,12,12],"right_children":[2,-1,4,-1,6,-1,8,10,12,-1,14,-1,16,-1,-1,-1,-1],"split_conditions":[2.7795386E-1,1.5735935E-1,3.1499603E-1,1.4776587E-1,2.7378437E-1,1.5664302E-1,1.13088295E-1,2.2722524E-1,1.9193925E-1,1.8863453E-1,5.50399E-1,9.4326355E-2,2.682007E-1,1.4523827E-1,-1.8116994E-2,1.3262231E-3,5.9134167E-2],"split_indices":[4956,0,2718,0,7942,0,7500,4971,7500,0,5497,0,7500,0,0,0,0],"split_type":[0,0,0,0,0,0,0,0,0,0,0,0,0,0,0,0,0],"sum_hessian":[5.364017E2,1.1683545E1,5.2471814E2,1.0885514E1,5.138326E2,8.78902E0,5.0504358E2,4.6554834E2,3.9495247E1,5.265149E0,4.602832E2,2.1091398E1,1.840385E1,8.877015E0,4.5140616E2,6.355273E0,1.2048577E1],"tree_param":{"num_deleted":"0","num_feature":"8536","num_nodes":"17","size_leaf_vector":"1"}},{"base_weights":[4.2410675E-2,-1.3397379E-1,7.869219E-2,1.1413991E-1,3.3383787E-2,1.4175461E-1,-4.884689E-3,1.7520076E-1,-3.428035E-2,5.999197E-1,-1.1892262E-1,1.00731485E-1,5.001333E-2,1.0784161E-1,-1.7104067E-2],"categories":[],"categories_nodes":[],"categories_segments":[],"categories_sizes":[],"default_left":[0,0,0,0,0,0,0,0,0,0,0,0,0,0,0],"id":43,"left_children":[1,-1,3,-1,5,-1,7,-1,9,11,13,-1,-1,-1,-1],"loss_changes":[2.6890732E1,0E0,2.5068207E1,0E0,2.6551777E1,0E0,2.5296196E1,0E0,2.5922932E1,1.8081646E0,2.6750298E1,0E0,0E0,0E0,0E0],"parents":[2147483647,0,0,2,2,4,4,6,6,8,8,9,9,10,10],"right_children":[2,-1,4,-1,6,-1,8,-1,10,12,14,-1,-1,-1,-1],"split_conditions":[1.2863925E0,-1.3397379E-1,4.2858422E-1,1.1413991E-1,4.909501E-1,1.4175461E-1,2.2159413E-1,1.7520076E-1,1.7218754E-1,2.900425E-1,4.761317E-1,1.00731485E-1,5.001333E-2,1.0784161E-1,-1.7104067E-2],"split_indices":[3623,0,8276,0,4956,0,5263,0,1789,2207,8405,0,0,0,0],"split_type":[0,0,0,0,0,0,0,0,0,0,0,0,0,0,0],"sum_hessian":[5.331417E2,1.2718097E1,5.204236E2,2.0291662E1,5.0013196E2,1.2485675E1,4.8764627E2,7.060492E0,4.805858E2,5.587122E1,4.2471457E2,9.203133E0,4.6668087E1,1.6894537E1,4.0782004E2],"tree_param":{"num_deleted":"0","num_feature":"8536","num_nodes":"15","size_leaf_vector":"1"}},{"base_weights":[6.212046E-2,1.0768994E-1,1.4381313E-2,1.538758E-1,-1.9048167E-2,1.1394199E-1,-6.41026E-2,1.4339833E-1,-1.0206878E-1,1.6878188E-1,-1.3438898E-1,1.2699492E-1,-1.765017E-2],"categories":[],"categories_nodes":[],"categories_segments":[],"categories_sizes":[],"default_left":[0,0,0,0,0,0,0,0,0,0,0,0,0],"id":44,"left_children":[1,-1,3,-1,5,-1,7,-1,9,-1,11,-1,-1],"loss_changes":[2.5241581E1,0E0,2.5455248E1,0E0,2.560789E1,0E0,2.6984198E1,0E0,2.6903065E1,0E0,2.7066744E1,0E0,0E0],"parents":[2147483647,0,0,2,2,4,4,6,6,8,8,10,10],"right_children":[2,-1,4,-1,6,-1,8,-1,10,-1,12,-1,-1],"split_conditions":[1.3828708E-1,1.0768994E-1,5.7236075E-1,1.538758E-1,7.3065567E-1,1.1394199E-1,3.3247152E-1,1.4339833E-1,2.6780772E-1,1.6878188E-1,3.730019E-1,1.2699492E-1,-1.765017E-2],"split_indices":[3463,0,3913,0,2029,0,5263,0,4971,0,1941,0,0],"split_type":[0,0,0,0,0,0,0,0,0,0,0,0,0],"sum_hessian":[5.2035895E2,2.2411224E1,4.9794775E2,9.719313E0,4.8822842E2,1.7367758E1,4.7086066E2,1.07293E1,4.6013138E2,7.2527647E0,4.528786E2,1.2336474E1,4.405421E2],"tree_param":{"num_deleted":"0","num_feature":"8536","num_nodes":"13","size_leaf_vector":"1"}},{"base_weights":[2.4333956E-2,6.576113E-2,-1.1996855E-1,1.4583242E-1,3.277666E-2,9.534917E-1,-1.9366207E-2,1.31664E-1,6.694506E-1,1.253631E-1,-6.0852002E-2,1.3327706E-2,9.263157E-2,1.4036335E-1,-9.881697E-2,-1.35848215E-2,1.4750604E-1],"categories":[],"categories_nodes":[],"categories_segments":[],"categories_sizes":[],"default_left":[1,0,0,0,0,0,0,0,0,0,0,0,0,0,1,0,0],"id":45,"left_children":[1,3,-1,-1,5,7,9,-1,11,-1,13,-1,-1,-1,15,-1,-1],"loss_changes":[2.6161716E1,2.28491E1,0E0,0E0,2.3445484E1,1.8184128E0,2.451736E1,0E0,2.1794496E0,0E0,2.5110924E1,0E0,0E0,0E0,2.5770863E1,0E0,0E0],"parents":[2147483647,0,0,1,1,4,4,5,5,6,6,8,8,10,10,14,14],"right_children":[2,4,-1,-1,6,8,10,-1,12,-1,14,-1,-1,-1,16,-1,-1],"split_conditions":[1.461869E-1,2.2665246E-1,-1.1996855E-1,1.4583242E-1,3.8849676E-1,1.679558E-1,5.1453406E-1,1.31664E-1,2.4578117E-1,1.253631E-1,3.571963E-1,1.3327706E-2,9.263157E-2,1.4036335E-1,2.0603572E-1,-1.35848215E-2,1.4750604E-1],"split_indices":[3463,5677,0,0,5254,5254,351,0,5254,0,607,0,0,0,6910,0,0],"split_type":[0,0,0,0,0,0,0,0,0,0,0,0,0,0,0,0,0],"sum_hessian":[5.1337646E2,4.9748523E2,1.589121E1,1.0511011E1,4.869742E2,2.5174162E1,4.6180005E2,9.453028E0,1.5721134E1,1.3652514E1,4.4814755E2,5.584031E0,1.0137103E1,1.0415144E1,4.377324E2,4.2856256E2,9.169821E0],"tree_param":{"num_deleted":"0","num_feature":"8536","num_nodes":"17","size_leaf_vector":"1"}},{"base_weights":[2.4368212E-2,1.346749E-1,-1.1350783E-2,9.920848E-2,-6.067208E-2,-8.722367E-2,1.9133304E-1,1.5256186E-1,-1.2083829E-1,1.5126887E-1,-1.5230194E-1,1.1956302E-1,-1.9212639E-2],"categories":[],"categories_nodes":[],"categories_segments":[],"categories_sizes":[],"default_left":[0,0,0,0,1,0,0,0,0,0,0,0,0],"id":46,"left_children":[1,-1,3,-1,5,7,-1,-1,9,-1,11,-1,-1],"loss_changes":[2.4096199E1,0E0,2.4677057E1,0E0,2.5065258E1,2.5648857E1,0E0,0E0,2.3925884E1,0E0,2.4559273E1,0E0,0E0],"parents":[2147483647,0,0,2,2,4,4,5,5,8,8,10,10],"right_children":[2,-1,4,-1,6,8,-1,-1,10,-1,12,-1,-1],"split_conditions":[8.7997013E-1,1.346749E-1,1.920142E-1,9.920848E-2,1.6367434E-1,2.7795386E-1,1.9133304E-1,1.5256186E-1,2.8617537E-1,1.5126887E-1,1.2289883E0,1.1956302E-1,-1.9212639E-2],"split_indices":[6657,0,7823,0,3769,4956,0,0,3913,0,5986,0,0],"split_type":[0,0,0,0,0,0,0,0,0,0,0,0,0],"sum_hessian":[5.088204E2,1.2416999E1,4.964034E2,2.2360807E1,4.740426E2,4.6869418E2,5.3484225E0,8.6628275E0,4.6003134E2,7.8036714E0,4.5222766E2,1.2144719E1,4.4008295E2],"tree_param":{"num_deleted":"0","num_feature":"8536","num_nodes":"13","size_leaf_vector":"1"}},{"base_weights":[-3.9991383E-3,2.0099138E-1,-3.0236768E-2,7.974725E-1,-9.384551E-2,6.640031E-1,1.2650473E-1,-1.3236211E-1,1.3591819E-1,9.5150314E-2,-1.5659835E-2,1.6273749E-1,-1.6383119E-1,1.23434685E-1,-2.0591567E-1,1.1322146E-1,-2.5051495E-2],"categories":[],"categories_nodes":[],"categories_segments":[],"categories_sizes":[],"default_left":[0,0,0,0,1,0,0,0,0,0,0,0,0,0,0,0,0],"id":47,"left_children":[1,-1,3,5,7,9,-1,11,-1,-1,-1,-1,13,-1,15,-1,-1],"loss_changes":[2.6894846E1,0E0,2.6520048E1,1.4035931E0,2.6334719E1,7.243759E0,0E0,2.552861E1,0E0,0E0,0E0,0E0,2.6678394E1,0E0,2.6352234E1,0E0,0E0],"parents":[2147483647,0,0,2,2,3,3,4,4,5,5,7,7,12,12,14,14],"right_children":[2,-1,4,6,8,10,-1,12,-1,-1,-1,-1,14,-1,16,-1,-1],"split_conditions":[2.447765E-1,2.0099138E-1,3.434594E-1,2.496643E-1,1.6533679E-1,1.8752287E-1,1.2650473E-1,3.75438E-1,1.3591819E-1,9.5150314E-2,-1.5659835E-2,1.6273749E-1,3.730019E-1,1.23434685E-1,6.423652E-1,1.1322146E-1,-2.5051495E-2],"split_indices":[7812,0,6311,6311,7942,6311,0,298,0,0,0,0,1941,0,7853,0,0],"split_type":[0,0,0,0,0,0,0,0,0,0,0,0,0,0,0,0,0],"sum_hessian":[5.0683344E2,5.545881E0,5.0128754E2,3.4950943E1,4.663366E2,2.9072338E1,5.878606E0,4.551797E2,1.1156921E1,2.1411306E1,7.6610317E0,7.1059256E0,4.4807376E2,1.2264913E1,4.3580884E2,1.3270235E1,4.225386E2],"tree_param":{"num_deleted":"0","num_feature":"8536","num_nodes":"17","size_leaf_vector":"1"}},{"base_weights":[7.414729E-2,1.1265354E-1,-1.2431758E-1,-1.3174725E-1,1.4523152E-1,1.788572E-1,-1.15110986E-1,-1.1538948E-1,2.1222395E-1,1.8303843E-1,1.8491898E-1,1.8690646E-1,1.5954154E-2],"categories":[],"categories_nodes":[],"categories_segments":[],"categories_sizes":[],"default_left":[1,0,0,0,1,0,0,0,0,0,0,0,0],"id":48,"left_children":[1,3,-1,-1,5,7,-1,-1,9,-1,11,-1,-1],"loss_changes":[2.6091372E1,2.3393162E1,0E0,0E0,2.1469387E1,2.1427303E1,0E0,0E0,2.0231096E1,0E0,1.931627E1,0E0,0E0],"parents":[2147483647,0,0,1,1,4,4,5,5,8,8,10,10],"right_children":[2,4,-1,-1,6,8,-1,-1,10,-1,12,-1,-1],"split_conditions":[1.2146054E-1,1.2863925E0,-1.2431758E-1,-1.3174725E-1,1.6573548E-1,2.00001E0,-1.15110986E-1,-1.1538948E-1,3.977835E-1,1.8303843E-1,1.5119661E-1,1.8690646E-1,1.5954154E-2],"split_indices":[3554,3623,0,0,3463,2125,0,0,3769,0,3795,0,0],"split_type":[0,0,0,0,0,0,0,0,0,0,0,0,0],"sum_hessian":[5.1060648E2,4.969935E2,1.3612975E1,1.0190817E1,4.868027E2,4.7533505E2,1.1467649E1,1.0789582E1,4.6454547E2,6.612911E0,4.5793256E2,5.7194147E0,4.5221313E2],"tree_param":{"num_deleted":"0","num_feature":"8536","num_nodes":"13","size_leaf_vector":"1"}},{"base_weights":[6.464761E-2,1.21239476E-1,2.6231702E-2,1.9268133E-1,2.3427692E-3,1.1060118E-1,-3.8539115E-2,1.5231702E-1,-6.923299E-2,8.6230546E-1,-1.2386059E-1,8.47763E-3,1.0635038E-1,1.7802906E-1,-1.529519E-2],"categories":[],"categories_nodes":[],"categories_segments":[],"categories_sizes":[],"default_left":[0,0,0,0,0,0,0,0,0,0,0,0,0,0,0],"id":49,"left_children":[1,-1,3,-1,5,-1,7,-1,9,11,13,-1,-1,-1,-1],"loss_changes":[2.223673E1,0E0,2.2229961E1,0E0,2.19095E1,0E0,2.2553045E1,0E0,2.352651E1,3.9176388E0,2.4402254E1,0E0,0E0,0E0,0E0],"parents":[2147483647,0,0,2,2,4,4,6,6,8,8,9,9,10,10],"right_children":[2,-1,4,-1,6,-1,8,-1,10,12,14,-1,-1,-1,-1],"split_conditions":[8.7997013E-1,1.21239476E-1,2.447765E-1,1.9268133E-1,6.423652E-1,1.1060118E-1,4.0436512E-1,1.5231702E-1,1.8260898E-1,1.3516344E-1,2.6780772E-1,8.47763E-3,1.0635038E-1,1.7802906E-1,-1.529519E-2],"split_indices":[6657,0,7812,0,7853,0,887,0,6634,6634,4971,0,0,0,0],"split_type":[0,0,0,0,0,0,0,0,0,0,0,0,0,0,0],"sum_hessian":[5.0405E2,1.5334786E1,4.8871518E2,5.0777397E0,4.8363745E2,1.6344297E1,4.6729315E2,8.069919E0,4.5922324E2,2.4619164E1,4.3460406E2,5.3531837E0,1.926598E1,5.634058E0,4.2897003E2],"tree_param":{"num_deleted":"0","num_feature":"8536","num_nodes":"15","size_leaf_vector":"1"}},{"base_weights":[3.5273075E-2,1.4807944E-1,-1.9944413E-3,1.1547257E-1,-4.341133E-2,1.6040753E-1,-7.330692E-2,1.7659055E-1,-1.005799E-1,1.2184522E-1,-1.3768293E-1,1.4647715E-1,-1.701014E-2],"categories":[],"categories_nodes":[],"categories_segments":[],"categories_sizes":[],"default_left":[0,0,0,0,0,0,0,0,0,0,0,0,0],"id":50,"left_children":[1,-1,3,-1,5,-1,7,-1,9,-1,11,-1,-1],"loss_changes":[2.628523E1,0E0,2.2883493E1,0E0,2.2827932E1,0E0,2.2942484E1,0E0,2.2100382E1,0E0,2.2939995E1,0E0,0E0],"parents":[2147483647,0,0,2,2,4,4,6,6,8,8,10,10],"right_children":[2,-1,4,-1,6,-1,8,-1,10,-1,12,-1,-1],"split_conditions":[5.2217704E-1,1.4807944E-1,2.473998E-1,1.1547257E-1,4.282038E-1,1.6040753E-1,1.5119661E-1,1.7659055E-1,4.4362122E-1,1.2184522E-1,2.974097E-1,1.4647715E-1,-1.701014E-2],"split_indices":[2893,0,2119,0,2253,0,3795,0,2373,0,7942,0,0],"split_type":[0,0,0,0,0,0,0,0,0,0,0,0,0],"sum_hessian":[4.8687442E2,1.1263286E1,4.7561115E2,1.5511602E1,4.6009955E2,7.261771E0,4.5283777E2,5.685341E0,4.4715244E2,1.1362702E1,4.3578973E2,7.7653008E0,4.280244E2],"tree_param":{"num_deleted":"0","num_feature":"8536","num_nodes":"13","size_leaf_vector":"1"}},{"base_weights":[7.002374E-2,1.570553E-1,4.19682E-2,1.1767496E0,4.14949E-3,5.6836467E-2,1.6771449E-1,1.1064043E-1,-3.7299495E-2,1.16630785E-1,-7.818118E-2,1.646186E-1,-1.0801782E-1,1.3495545E-1,-1.4523304E-2],"categories":[],"categories_nodes":[],"categories_segments":[],"categories_sizes":[],"default_left":[0,0,0,0,0,0,0,0,0,0,0,0,0,0,0],"id":51,"left_children":[1,-1,3,5,7,-1,-1,-1,9,-1,11,-1,13,-1,-1],"loss_changes":[2.0340452E1,0E0,2.0460184E1,3.7278118E0,2.1171091E1,0E0,0E0,0E0,2.2070969E1,0E0,2.245316E1,0E0,2.333271E1,0E0,0E0],"parents":[2147483647,0,0,2,2,3,3,4,4,8,8,10,10,12,12],"right_children":[2,-1,4,6,8,-1,-1,-1,10,-1,12,-1,14,-1,-1],"split_conditions":[8.987735E-1,1.570553E-1,3.27524E-1,2.399468E-1,7.3065567E-1,5.6836467E-2,1.6771449E-1,1.1064043E-1,1.974838E-1,1.16630785E-1,4.0436512E-1,1.646186E-1,3.2220304E-1,1.3495545E-1,-1.4523304E-2],"split_indices":[6394,0,6910,6910,2029,0,0,0,5099,0,887,0,1941,0,0],"split_type":[0,0,0,0,0,0,0,0,0,0,0,0,0,0,0],"sum_hessian":[4.8373297E2,7.869299E0,4.7586365E2,1.4376273E1,4.614874E2,7.4519534E0,6.9243193E0,1.5793624E1,4.4569376E2,1.3736791E1,4.3195697E2,6.4255905E0,4.2553137E2,9.716367E0,4.15815E2],"tree_param":{"num_deleted":"0","num_feature":"8536","num_nodes":"15","size_leaf_vector":"1"}},{"base_weights":[1.6547889E-2,-4.6660952E-2,7.8123856E-1,-8.9786835E-2,1.1922809E-1,1.0286567E-1,4.7743414E-2,1.298242E-1,-1.2894858E-1,1.11352324E-1,-1.7308953E-1,1.4470465E-1,-2.0873342E-1,1.2706527E-1,-2.497731E-2],"categories":[],"categories_nodes":[],"categories_segments":[],"categories_sizes":[],"default_left":[1,1,0,0,0,0,0,0,0,0,0,0,0,0,0],"id":52,"left_children":[1,3,5,7,-1,-1,-1,-1,9,-1,11,-1,13,-1,-1],"loss_changes":[2.32962E1,2.3906092E1,2.2747593E0,2.3615543E1,0E0,0E0,0E0,0E0,2.3251352E1,0E0,2.3798645E1,0E0,2.4541874E1,0E0,0E0],"parents":[2147483647,0,0,1,1,2,2,3,3,8,8,10,10,12,12],"right_children":[2,4,6,8,-1,-1,-1,-1,10,-1,12,-1,14,-1,-1],"split_conditions":[9.628794E-2,1.5063481E-1,1.8384312E-1,5.2217704E-1,1.1922809E-1,1.0286567E-1,4.7743414E-2,1.298242E-1,3.7222984E-1,1.11352324E-1,3.1499603E-1,1.4470465E-1,5.1453406E-1,1.2706527E-1,-2.497731E-2],"split_indices":[3320,2119,3320,2893,0,0,0,0,8276,0,2718,0,351,0,0],"split_type":[0,0,0,0,0,0,0,0,0,0,0,0,0,0,0],"sum_hessian":[4.802174E2,4.4442087E2,3.5796562E1,4.3036786E2,1.405299E1,1.8414162E1,1.73824E1,1.0926978E1,4.194409E2,1.3558964E1,4.0588193E2,7.884991E0,3.9799692E2,9.934088E0,3.8806284E2],"tree_param":{"num_deleted":"0","num_feature":"8536","num_nodes":"15","size_leaf_vector":"1"}},{"base_weights":[5.4995388E-2,1.5775964E-1,2.5516145E-2,1.4485489E-1,-6.042876E-3,-5.1707197E-2,1.0201772E0,1.7843984E-1,-7.805499E-2,1.2851764E-1,4.563465E-2,1.0808233E-1,-1.2015063E-1,1.0917386E-1,-1.6129695E-2],"categories":[],"categories_nodes":[],"categories_segments":[],"categories_sizes":[],"default_left":[0,0,0,0,1,0,0,0,0,0,0,0,0,0,0],"id":53,"left_children":[1,-1,3,-1,5,7,9,-1,11,-1,-1,-1,13,-1,-1],"loss_changes":[2.1370337E1,0E0,2.1069752E1,0E0,2.1599085E1,2.148095E1,2.3474236E0,0E0,2.1393099E1,0E0,0E0,0E0,2.119358E1,0E0,0E0],"parents":[2147483647,0,0,2,2,4,4,5,5,6,6,8,8,12,12],"right_children":[2,-1,4,-1,6,8,10,-1,12,-1,-1,-1,14,-1,-1],"split_conditions":[4.282038E-1,1.5775964E-1,3.838877E-1,1.4485489E-1,1.6711602E-1,2.447765E-1,3.1591457E-1,1.7843984E-1,6.423652E-1,1.2851764E-1,4.563465E-2,1.0808233E-1,7.3065567E-1,1.0917386E-1,-1.6129695E-2],"split_indices":[2253,0,4956,0,4926,7812,4926,0,7853,0,0,0,2029,0,0],"split_type":[0,0,0,0,0,0,0,0,0,0,0,0,0,0,0],"sum_hessian":[4.7600864E2,8.043566E0,4.679651E2,9.1788845E0,4.587862E2,4.4015018E2,1.863601E1,5.2827826E0,4.348674E2,1.1807257E1,6.8287516E0,1.4377744E1,4.2048965E2,1.2969312E1,4.0752036E2],"tree_param":{"num_deleted":"0","num_feature":"8536","num_nodes":"15","size_leaf_vector":"1"}},{"base_weights":[3.931068E-3,1.2904589E-1,-3.425358E-2,1.398545E-1,-6.659689E-2,1.4880854E-1,-9.705784E-2,1.5829746E-1,-1.247398E-1,1.616622E-1,-1.5261726E-1,1.0064598E-1,-1.9308502E-2],"categories":[],"categories_nodes":[],"categories_segments":[],"categories_sizes":[],"default_left":[0,0,0,0,0,0,0,0,0,0,0,0,0],"id":54,"left_children":[1,-1,3,-1,5,-1,7,-1,9,-1,11,-1,-1],"loss_changes":[2.287385E1,0E0,2.1053307E1,0E0,2.1136341E1,0E0,2.045988E1,0E0,2.1099298E1,0E0,2.0068033E1,0E0,0E0],"parents":[2147483647,0,0,2,2,4,4,6,6,8,8,10,10],"right_children":[2,-1,4,-1,6,-1,8,-1,10,-1,12,-1,-1],"split_conditions":[3.5118204E-1,1.2904589E-1,2.7795386E-1,1.398545E-1,3.9313158E-1,1.4880854E-1,4.282038E-1,1.5829746E-1,2.6780772E-1,1.616622E-1,1.8192637E-1,1.0064598E-1,-1.9308502E-2],"split_indices":[5263,0,4956,0,8107,0,2253,0,4971,0,7823,0,0],"split_type":[0,0,0,0,0,0,0,0,0,0,0,0,0],"sum_hessian":[4.6371985E2,1.242134E1,4.5129852E2,9.030036E0,4.4226846E2,7.579312E0,4.3468915E2,6.1355433E0,4.2855362E2,5.8546314E0,4.2269897E2,1.3454841E1,4.0924414E2],"tree_param":{"num_deleted":"0","num_feature":"8536","num_nodes":"13","size_leaf_vector":"1"}},{"base_weights":[3.8652297E-2,-3.829314E-3,1.0674819E0,1.0767521E-1,-4.8813127E-2,1.3437173E-1,6.0976543E-2,1.6535969E-1,-7.632474E-2,1.536063E-1,-1.0669435E-1,1.3242222E-1,-1.4269027E-1,1.2428697E-1,-1.7891623E-2],"categories":[],"categories_nodes":[],"categories_segments":[],"categories_sizes":[],"default_left":[1,0,0,0,0,0,0,0,0,0,0,0,0,0,0],"id":55,"left_children":[1,3,5,-1,7,-1,-1,-1,9,-1,11,-1,13,-1,-1],"loss_changes":[1.9856527E1,2.130466E1,1.4584522E0,0E0,1.9829731E1,0E0,0E0,0E0,2.0483326E1,0E0,2.121524E1,0E0,2.0254805E1,0E0,0E0],"parents":[2147483647,0,0,1,1,2,2,4,4,8,8,10,10,12,12],"right_children":[2,4,6,-1,8,-1,-1,-1,10,-1,12,-1,14,-1,-1],"split_conditions":[1.6701044E-1,9.4418055E-1,3.1591457E-1,1.0767521E-1,2.0222686E-1,1.3437173E-1,6.0976543E-2,1.6535969E-1,1.9110927E-1,1.536063E-1,4.4362122E-1,1.3242222E-1,2.6707673E-1,1.2428697E-1,-1.7891623E-2],"split_indices":[4926,1864,4926,0,1760,0,0,0,5783,0,2373,0,2433,0,0],"split_type":[0,0,0,0,0,0,0,0,0,0,0,0,0,0,0],"sum_hessian":[4.5322333E2,4.3620804E2,1.7015276E1,1.651662E1,4.1969144E2,9.404121E0,7.6111546E0,5.734538E0,4.1395688E2,6.7362456E0,4.0722064E2,9.11442E0,3.9810623E2,9.294744E0,3.8881146E2],"tree_param":{"num_deleted":"0","num_feature":"8536","num_nodes":"15","size_leaf_vector":"1"}},{"base_weights":[6.2318083E-2,-1.2941132E-1,9.630083E-2,1.503316E-1,6.755114E-2,4.4031963E-2,1.7453979E-1,1.933742E-2,1.6612703E-1,1.1472565E-1,-1.7118018E-2,6.801932E-2,-8.016584E-3],"categories":[],"categories_nodes":[],"categories_segments":[],"categories_sizes":[],"default_left":[0,0,0,0,1,1,0,0,0,0,0,0,0],"id":56,"left_children":[1,-1,3,-1,5,7,-1,9,-1,-1,11,-1,-1],"loss_changes":[2.1335861E1,0E0,1.8095238E1,0E0,1.73606E1,1.7412407E1,0E0,1.775187E1,0E0,0E0,1.8463446E1,0E0,0E0],"parents":[2147483647,0,0,2,2,4,4,5,5,7,7,10,10],"right_children":[2,-1,4,-1,6,8,-1,10,-1,-1,12,-1,-1],"split_conditions":[6.431912E-1,-1.2941132E-1,3.9313158E-1,1.503316E-1,2.0422955E-1,1.9156599E-1,1.7453979E-1,3.6944595E-1,1.6612703E-1,1.1472565E-1,5.1055235E-1,6.801932E-2,-8.016584E-3],"split_indices":[3623,0,8107,0,2211,3769,0,1864,0,0,3320,0,0],"split_type":[0,0,0,0,0,0,0,0,0,0,0,0,0],"sum_hessian":[4.591609E2,1.0315932E1,4.4884494E2,7.9606237E0,4.408843E2,4.3580173E2,5.082598E0,4.3024402E2,5.5576878E0,1.2516534E1,4.177275E2,3.3825684E1,3.8390182E2],"tree_param":{"num_deleted":"0","num_feature":"8536","num_nodes":"13","size_leaf_vector":"1"}},{"base_weights":[6.309423E-2,9.798828E-2,-1.1862407E-1,1.401781E-1,6.4224035E-2,1.0143427E-1,1.7975904E-2,1.3899948E-1,-1.6844908E-2,1.5016495E-1,-4.7680713E-2,1.1794454E-1,-8.777491E-3],"categories":[],"categories_nodes":[],"categories_segments":[],"categories_sizes":[],"default_left":[1,0,0,0,0,0,0,0,0,0,0,0,0],"id":57,"left_children":[1,3,-1,-1,5,-1,7,-1,9,-1,11,-1,-1],"loss_changes":[2.0286125E1,1.9764774E1,0E0,0E0,1.9346092E1,0E0,2.0148546E1,0E0,1.935426E1,0E0,2.0009338E1,0E0,0E0],"parents":[2147483647,0,0,1,1,4,4,6,6,8,8,10,10],"right_children":[2,4,-1,-1,6,-1,8,-1,10,-1,12,-1,-1],"split_conditions":[1.2146054E-1,3.5118204E-1,-1.1862407E-1,1.401781E-1,3.8849676E-1,1.0143427E-1,1.383875E-1,1.3899948E-1,8.987735E-1,1.5016495E-1,8.7997013E-1,1.1794454E-1,-8.777491E-3],"split_indices":[3554,5263,0,0,5254,0,3510,0,6394,0,6657,0,0],"split_type":[0,0,0,0,0,0,0,0,0,0,0,0,0],"sum_hessian":[4.6167203E2,4.5002438E2,1.1647659E1,1.0337292E1,4.3968707E2,1.9437231E1,4.2024985E2,9.438366E0,4.108115E2,7.226922E0,4.0358456E2,1.18701105E1,3.9171445E2],"tree_param":{"num_deleted":"0","num_feature":"8536","num_nodes":"13","size_leaf_vector":"1"}},{"base_weights":[1.0426459E-1,1.4327747E-1,-1.042757E-1,-1.284204E-1,1.7374851E-1,2.1466011E-1,-9.538361E-2,2.4389166E-1,-1.2772065E-1,2.7518213E-1,-9.569627E-2,3.0167708E-2,-1.1048112E-1],"categories":[],"categories_nodes":[],"categories_segments":[],"categories_sizes":[],"default_left":[1,0,0,0,1,1,0,1,0,1,0,0,0],"id":58,"left_children":[1,3,-1,-1,5,7,-1,9,-1,11,-1,-1,-1],"loss_changes":[2.0563408E1,1.9451614E1,0E0,0E0,2.0212261E1,1.8598703E1,0E0,1.5748884E1,0E0,1.5047329E1,0E0,0E0,0E0],"parents":[2147483647,0,0,1,1,4,4,5,5,7,7,9,9],"right_children":[2,4,-1,-1,6,8,-1,10,-1,12,-1,-1,-1],"split_conditions":[1.16588615E-1,1.2863925E0,-1.042757E-1,-1.284204E-1,1.19865306E-1,1.4892243E-1,-9.538361E-2,1.3987213E-1,-1.2772065E-1,1.8804188E-1,-9.569627E-2,3.0167708E-2,-1.1048112E-1],"split_indices":[4383,4698,0,0,5427,3847,0,3510,0,6982,0,0,0],"split_type":[0,0,0,0,0,0,0,0,0,0,0,0,0],"sum_hessian":[4.5519293E2,4.410663E2,1.4126609E1,8.358308E0,4.32708E2,4.1833923E2,1.436877E1,4.111203E2,7.218948E0,4.0143112E2,9.689185E0,3.9463574E2,6.7953506E0],"tree_param":{"num_deleted":"0","num_feature":"8536","num_nodes":"13","size_leaf_vector":"1"}},{"base_weights":[-5.7873507E-3,1.3707452E-1,-3.4809645E-2,1.6398016E-1,-5.8789443E-2,1.5189506E-1,-8.4243886E-2,1.2022662E-1,-1.1667785E-1,1.4445506E-1,-1.4508383E-1,9.861622E-2,-1.869719E-2],"categories":[],"categories_nodes":[],"categories_segments":[],"categories_sizes":[],"default_left":[0,0,0,0,0,0,0,0,0,0,0,0,0],"id":59,"left_children":[1,-1,3,-1,5,-1,7,-1,9,-1,11,-1,-1],"loss_changes":[1.8024881E1,0E0,1.7832628E1,0E0,1.765416E1,0E0,1.8100355E1,0E0,1.8869076E1,0E0,1.980869E1,0E0,0E0],"parents":[2147483647,0,0,2,2,4,4,6,6,8,8,10,10],"right_children":[2,-1,4,-1,6,-1,8,-1,10,-1,12,-1,-1],"split_conditions":[3.1499603E-1,1.3707452E-1,2.6780772E-1,1.6398016E-1,2.0795912E-1,1.5189506E-1,3.2220304E-1,1.2022662E-1,2.7378437E-1,1.4445506E-1,4.2858422E-1,9.861622E-2,-1.869719E-2],"split_indices":[2718,0,4971,0,5677,0,1941,0,7942,0,8276,0,0],"split_type":[0,0,0,0,0,0,0,0,0,0,0,0,0],"sum_hessian":[4.489902E2,8.316293E0,4.4067392E2,5.269926E0,4.35404E2,5.981476E0,4.2942252E2,9.672921E0,4.197496E2,6.609855E0,4.1313974E2,1.39467E1,3.9919302E2],"tree_param":{"num_deleted":"0","num_feature":"8536","num_nodes":"13","size_leaf_vector":"1"}},{"base_weights":[3.630519E-2,1.2916669E-1,3.1691552E-3,1.18408956E-1,-3.1689964E-2,4.3816075E-1,-1.2161285E-1,9.913455E-2,3.5639274E-1,1.2601635E-1,-1.5889938E-1,9.344541E-2,2.771778E-1,1.0687512E-1,-2.0295623E-1,1.8223068E-2,6.927457E-2,1.5062706E-1,-2.3528215E-2],"categories":[],"categories_nodes":[],"categories_segments":[],"categories_sizes":[],"default_left":[0,0,0,0,0,0,0,0,0,0,0,0,0,0,0,0,0,0,0],"id":60,"left_children":[1,-1,3,-1,5,7,9,-1,11,-1,13,-1,15,-1,17,-1,-1,-1,-1],"loss_changes":[1.850082E1,0E0,1.7920639E1,0E0,1.7922413E1,2.7296743E0,1.853043E1,0E0,2.531598E0,0E0,1.9002003E1,0E0,2.0446467E0,0E0,1.8926052E1,0E0,0E0,0E0,0E0],"parents":[2147483647,0,0,2,2,4,4,5,5,6,6,8,8,10,10,12,12,14,14],"right_children":[2,-1,4,-1,6,8,10,-1,12,-1,14,-1,16,-1,18,-1,-1,-1,-1],"split_conditions":[5.2217704E-1,1.2916669E-1,1.899351E-1,1.18408956E-1,2.440066E-1,2.900425E-1,3.3247152E-1,9.913455E-2,3.2465443E-1,1.2601635E-1,6.423652E-1,9.344541E-2,2.0694302E-1,1.0687512E-1,3.2319155E-1,1.8223068E-2,6.927457E-2,1.5062706E-1,-2.3528215E-2],"split_indices":[2893,0,5099,0,1789,2207,5263,0,4435,0,7853,0,1789,0,3766,0,0,0,0],"split_type":[0,0,0,0,0,0,0,0,0,0,0,0,0,0,0,0,0,0,0],"sum_hessian":[4.4385413E2,1.0437763E1,4.3341638E2,1.1481756E1,4.219346E2,6.715811E1,3.547765E2,7.215981E0,5.994213E1,8.460168E0,3.4631635E2,5.923038E0,5.4019093E1,1.1191969E1,3.3512436E2,4.514343E1,8.875665E0,5.374089E0,3.2975027E2],"tree_param":{"num_deleted":"0","num_feature":"8536","num_nodes":"19",